tree
version=v4
num_class=1
num_tree_per_iteration=1
label_index=0
max_feature_idx=13
objective=regression
feature_names=1stFlrSF Fireplaces FullBath GarageArea GarageCars GarageYrBlt GrLivArea LotArea Neighborhood OverallQual TotRmsAbvGrd TotalBsmtSF YearBuilt YearRemodAdd
feature_infos=[334:4692] [0:3] [0:3] [0:1418] [0:4] [-107:0] [334:5642] [1300:215245] [0:24] [1:10] [2:14] [0:6110] [-136:0] [-60:1]
tree_sizes=2675 2722 2731 2730 2722 2730 2720 2718 2723 2726 2741 2737 2733 2723 2735 2737 2739 2725 2747 2741 2738 2727 2733 2731 2731 2733 2730 2742 2744 2751 2733 2739 2726 2743 2749 2738 2726 2735 2735 2726 2737 2740 2741 2749 2733

Tree=0
num_leaves=31
num_cat=0
split_feature=9 9 9 6 6 6 6 11 4 0 11 11 11 9 9 6 11 12 5 1 6 12 9 6 13 8 3 11 0 13
split_gain=3.77771e+12 9.58946e+11 6.05487e+11 3.30014e+11 1.61766e+11 1.61242e+11 1.37109e+11 1.20411e+11 8.31025e+10 7.37402e+10 6.38775e+10 6.00511e+10 4.9851e+10 4.84286e+10 4.66035e+10 3.24195e+10 2.01682e+10 1.91873e+10 1.85099e+10 1.74599e+10 1.64775e+10 1.43849e+10 1.41785e+10 1.26669e+10 1.21885e+10 1.163e+10 1.14346e+10 1.04296e+10 1.03949e+10 7.09384e+09
threshold=7.5000000000000009 6.5000000000000009 8.5000000000000018 1374.5000000000002 2232.0000000000005 1822.0000000000002 1970.5000000000002 979.00000000000011 1.5000000000000002 1393.0000000000002 1500.5000000000002 1411.5000000000002 995.00000000000011 4.5000000000000009 5.5000000000000009 1931.0000000000002 726.50000000000011 -53.499999999999993 -64.499999999999986 1.0000000180025095e-35 2154.5000000000005 -31.499999999999996 5.5000000000000009 835.50000000000011 -41.499999999999993 6.5000000000000009 483.50000000000006 545.00000000000011 1627.0000000000002 -27.499999999999996
decision_type=2 2 2 2 2 2 2 2 2 2 2 2 2 2 2 2 2 2 10 2 2 2 2 2 2 2 2 2 2 2
left_child=1 3 6 7 -4 10 11 13 24 -8 16 -2 -7 23 19 25 -3 -9 -15 -10 -14 -18 -19 -1 -5 -16 -23 -20 -13 -27
right_child=2 5 4 8 -6 12 9 17 14 -11 -12 28 20 18 15 -17 21 22 27 -21 -22 26 -24 -25 -26 29 -28 -29 -30 -31
leaf_value=169971.6078886035 184507.8541908628 178702.83541862376 197279.54895631183 175630.67631234284 208171.22140227538 184506.94943699759 190317.49838339517 174947.04826620765 176698.21775324107 197389.11373450866 186939.87404627394 188070.36914348631 187444.33643910574 173256.73583959782 182783.06504695921 184065.05322264531 179288.22216501719 176970.38663782954 173340.56038327678 179834.85646840261 191056.66951182022 180977.14873888862 178946.81332708584 172762.87188599934 177902.24538190159 179147.74601995407 182993.60444548086 175676.170413352 190788.55625716966 180836.51261547618
leaf_weight=21 37 27 30 44 25 45 30 30 36 29 22 24 28 55 20 34 21 97 22 35 23 49 58 72 51 42 66 146 34 61
leaf_count=21 37 27 30 44 25 45 30 30 36 29 22 24 28 55 20 34 21 97 22 35 23 49 58 72 51 42 66 146 34 61
internal_value=180895 178563 193224 176843 202230 183608 190007 175236 179335 193793 181882 187656 186933 174050 180370 181332 181199 177262 174849 178244 189073 181695 177710 172133 176850 180576 182134 175370 189664 180148
internal_weight=0 1105 209 824 55 281 154 501 323 59 185 95 96 316 228 157 163 185 223 71 51 136 155 93 95 123 115 168 58 103
internal_count=1314 1105 209 824 55 281 154 501 323 59 185 95 96 316 228 157 163 185 223 71 51 136 155 93 95 123 115 168 58 103
is_linear=0
shrinkage=1


Tree=1
num_leaves=31
num_cat=0
split_feature=9 9 9 6 6 6 6 11 4 0 11 11 9 11 9 6 3 3 11 1 11 0 11 13 8 0 12 7 12 6
split_gain=3.05995e+12 7.76746e+11 4.90444e+11 2.67311e+11 1.31031e+11 1.30606e+11 1.11641e+11 9.84926e+10 6.7313e+10 6.0906e+10 5.39834e+10 5.2052e+10 4.20755e+10 4.14012e+10 3.77489e+10 2.62598e+10 1.95226e+10 1.51172e+10 1.43107e+10 1.41425e+10 1.28377e+10 1.17612e+10 1.11534e+10 9.8727e+09 9.42033e+09 8.41988e+09 8.23807e+09 8.26227e+09 8.07532e+09 7.08072e+09
threshold=7.5000000000000009 6.5000000000000009 8.5000000000000018 1374.5000000000002 2232.0000000000005 1822.0000000000002 1966.0000000000002 1007.5000000000001 1.5000000000000002 1393.0000000000002 1411.5000000000002 1469.0000000000002 4.5000000000000009 1202.5000000000002 5.5000000000000009 1931.0000000000002 419.00000000000006 397.50000000000006 1199.5000000000002 1.0000000180025095e-35 769.00000000000011 734.50000000000011 951.50000000000011 -41.499999999999993 6.5000000000000009 1627.0000000000002 -70.499999999999986 5805.0000000000009 -53.499999999999993 1657.5000000000002
decision_type=2 2 2 2 2 2 2 2 2 2 2 2 2 2 2 2 2 2 2 2 2 2 2 2 2 2 2 2 2 2
left_child=1 3 6 7 -4 11 10 12 23 -8 -2 17 21 22 19 24 26 -3 -9 -10 -19 -1 -7 -5 -16 -12 -14 -28 -18 -25
right_child=2 5 4 8 -6 13 9 18 14 -11 25 -13 16 -15 15 -17 28 20 -20 -21 -22 -23 -24 29 -26 -27 27 -29 -30 -31
leaf_value=-9614.5097511574077 2918.9888931710379 -2088.2139995117191 14746.228580729166 -4737.756327819824 24548.733851562502 2801.5633572048609 8517.497802734375 -3653.9373167936465 -3776.9690456814237 14844.836974676726 6457.9672281901039 4778.8259327855603 -7270.2481754954269 8371.1141632080089 1699.3935009765626 2853.1828484030334 -5496.1276178175403 -1076.8398249009076 -1547.9621742248537 -953.99421875000007 1181.3153309507468 -7152.6978657155796 5462.6716605050224 -3761.2638741629471 -672.26465128185691 8904.3356387867661 -7447.9479296874997 -5200.91271592882 -3496.8180798760777 -1393.2680303158968
leaf_weight=27 35 25 30 44 25 36 32 121 36 29 24 29 41 32 20 34 31 34 44 35 97 69 28 28 103 34 20 90 58 23
leaf_count=27 35 25 30 44 25 36 32 121 36 29 24 29 41 32 20 34 31 34 44 35 97 69 28 28 103 34 20 90 58 23
internal_value=0 -2098.7 11096 -3646.98 19201.9 2441.43 8201.06 -5093.18 -1403.81 11525.6 6020.46 888.409 -6075.73 5434.24 -471.964 393.33 -5367.99 165.19 -3092.34 -2385.36 595.229 -7845.08 3965.8 -3640.23 -286.629 7892.05 -6060.41 -5609.46 -4193.21 -2693.34
internal_weight=0 1105 209 824 55 281 154 501 323 61 93 185 336 96 228 157 240 156 165 71 131 96 64 95 123 58 151 110 89 51
internal_count=1314 1105 209 824 55 281 154 501 323 61 93 185 336 96 228 157 240 156 165 71 131 96 64 95 123 58 151 110 89 51
is_linear=0
shrinkage=0.1


Tree=2
num_leaves=31
num_cat=0
split_feature=9 9 9 6 11 6 6 11 4 0 11 11 9 9 3 6 6 11 3 12 1 0 9 11 13 11 0 0 12 7
split_gain=2.47856e+12 6.29165e+11 3.9726e+11 2.16522e+11 1.13609e+11 1.08458e+11 9.08036e+10 7.9779e+10 5.45235e+10 4.97404e+10 4.6175e+10 4.61486e+10 3.40811e+10 3.05766e+10 2.51243e+10 2.12705e+10 1.97724e+10 1.67747e+10 1.58133e+10 1.29449e+10 1.14554e+10 1.11003e+10 1.06754e+10 1.02161e+10 9.06078e+09 9.00857e+09 7.33619e+09 6.8201e+09 6.67284e+09 6.69244e+09
threshold=7.5000000000000009 6.5000000000000009 8.5000000000000018 1374.5000000000002 1914.5000000000002 2019.5000000000002 1953.5000000000002 1007.5000000000001 1.5000000000000002 1393.0000000000002 1411.5000000000002 1500.5000000000002 4.5000000000000009 5.5000000000000009 408.50000000000006 1931.0000000000002 1763.0000000000002 1209.0000000000002 419.00000000000006 -50.499999999999993 1.0000000180025095e-35 1148.5000000000002 3.5000000000000004 769.00000000000011 -26.499999999999996 1027.0000000000002 754.50000000000011 1627.0000000000002 -70.499999999999986 5805.0000000000009
decision_type=2 2 2 2 2 2 2 2 2 2 2 2 2 2 2 2 2 2 2 2 2 2 2 2 2 2 2 2 2 2
left_child=1 3 6 7 -4 11 10 12 25 -8 -2 14 22 20 -3 24 23 -7 28 -9 -10 -21 -1 -16 -15 -5 -24 -12 -14 -30
right_child=2 5 4 8 -6 17 9 19 13 -11 27 -13 18 15 16 -17 -18 -19 -20 21 -22 -23 26 -25 -26 -27 -28 -29 29 -31
leaf_value=-9116.2165234375007 2461.4950608197382 -1574.1232896071215 13846.098816964288 -3842.3712829589845 23294.060136718752 4643.0989862257438 7683.6742424242439 -4323.4852419969511 -3399.2721476236979 13360.353003771552 5812.1705383300787 5107.5567672164361 -6543.2233207888721 -1312.7126564492985 -1191.2387801537147 2567.8647152171416 3006.5173615828808 8164.5550394694019 -3773.8860513408531 -3160.7390391031904 -858.59480189732153 -1264.5070345911488 -8058.8828924005684 1064.9084094481036 440.44689421782624 -1601.3035847981773 -5892.5066189236113 8013.9021024816175 -6703.1529882812501 -4680.8214029947912
leaf_weight=20 34 39 35 71 20 31 33 41 36 29 24 27 41 49 26 34 46 24 89 66 35 58 22 88 74 24 54 34 20 90
leaf_count=20 34 39 35 71 20 31 33 41 36 29 24 27 41 49 26 34 46 24 89 66 35 58 22 88 74 24 54 34 20 90
internal_value=0 -1888.83 9986.42 -3282.28 17281.7 2197.29 7380.96 -4583.86 -1263.43 10338.9 5387.56 1228.11 -5468.16 -424.768 701.752 353.997 1256.5 6179.73 -4831.19 -2783.11 -2146.83 -2273.79 -7060.57 550.349 -257.966 -3276.21 -6519.62 7102.84 -5454.37 -5048.52
internal_weight=0 1105 209 824 55 281 154 501 323 62 92 226 336 228 199 157 160 55 240 165 71 124 96 114 123 95 76 58 151 110
internal_count=1314 1105 209 824 55 281 154 501 323 62 92 226 336 228 199 157 160 55 240 165 71 124 96 114 123 95 76 58 151 110
is_linear=0
shrinkage=0.1


Tree=3
num_leaves=31
num_cat=0
split_feature=9 9 9 6 6 6 6 12 9 11 0 11 11 7 4 11 9 6 7 5 12 11 7 1 12 6 8 6 6 6
split_gain=2.00763e+12 5.09623e+11 3.21781e+11 1.75997e+11 9.97182e+10 8.83464e+10 7.3551e+10 7.00269e+10 4.71019e+10 4.40646e+10 4.02897e+10 3.74017e+10 3.19869e+10 2.89836e+10 2.84339e+10 2.00611e+10 1.58656e+10 1.58195e+10 1.44332e+10 1.42733e+10 1.26571e+10 1.18084e+10 9.55748e+09 9.54063e+09 8.23318e+09 8.19261e+09 7.60123e+09 7.23258e+09 6.54604e+09 6.03787e+09
threshold=7.5000000000000009 6.5000000000000009 8.5000000000000018 1411.5000000000002 2232.0000000000005 1725.5000000000002 1953.5000000000002 -54.499999999999993 5.5000000000000009 1107.5000000000002 1393.0000000000002 1411.5000000000002 1307.5000000000002 10438.500000000002 1.5000000000000002 1099.5000000000002 4.5000000000000009 1931.0000000000002 6125.0000000000009 -26.499999999999996 -29.499999999999996 1107.5000000000002 6613.5000000000009 1.0000000180025095e-35 -87.499999999999986 1039.5000000000002 14.500000000000002 1049.0000000000002 1474.5000000000002 1711.0000000000002
decision_type=2 2 2 2 2 2 2 2 2 2 2 2 2 2 2 2 2 2 2 10 2 2 2 2 2 2 2 2 2 2
left_child=1 3 6 7 -4 12 11 16 15 20 -8 -2 22 19 18 24 25 -15 -9 -10 -7 -16 -3 -17 -5 -1 -11 -20 -14 -26
right_child=2 5 4 8 -6 9 10 14 13 26 -12 -13 28 17 21 23 -18 -19 27 -21 -22 -23 -24 -25 29 -27 -28 -29 -30 -31
leaf_value=-7995.1595288825765 2215.3455789005056 -2210.3378123692105 11666.543251953126 -5001.130645282452 20217.957093749999 673.75683135986333 6915.3069306344696 -6048.5503024193549 -2138.6334600933528 5293.9241444463323 12024.318130387932 6392.55650750522 996.26302897135417 353.39348174450447 -2856.9564481977986 -2340.2596354166667 -4960.9785044921882 3278.6033887139683 -4341.4359791666675 256.89864977459575 3450.0575507530798 -1062.3902005282316 -37.177141539691249 674.09212355840782 -3721.4239316743001 -5691.3266163793105 7925.3725365048367 -2911.8087395055973 3128.3659562852649 -1462.8943579101563
leaf_weight=33 34 28 30 26 25 24 33 31 59 23 29 58 24 51 110 21 125 29 75 43 52 55 73 21 29 29 21 67 36 20
leaf_count=33 34 28 30 26 25 24 33 31 59 23 29 58 24 51 110 21 125 29 75 43 52 55 73 21 29 29 21 67 36 20
internal_value=0 -1699.95 8987.78 -2954.05 15553.5 1977.56 6642.86 -4056.97 -1017.49 4031.39 9305.01 4848.8 446.758 -11.1548 -3197.93 -2582.89 -5609.68 1413.78 -4093.66 -1128.75 2573.33 -2258.77 -639.638 -833.084 -3562.78 -6917.56 6549.84 -3666.89 2275.52 -2799.58
internal_weight=0 1105 209 824 55 281 154 525 299 120 62 92 161 182 338 117 187 80 173 102 76 165 101 42 75 62 44 142 60 49
internal_count=1314 1105 209 824 55 281 154 525 299 120 62 92 161 182 338 117 187 80 173 102 76 165 101 42 75 62 44 142 60 49
is_linear=0
shrinkage=0.1


Tree=4
num_leaves=31
num_cat=0
split_feature=9 9 11 6 4 6 6 12 7 9 0 12 7 11 3 11 6 6 6 6 11 3 11 5 11 5 12 7 6 9
split_gain=1.62618e+12 4.12795e+11 2.66543e+11 1.42557e+11 8.94779e+10 7.40356e+10 5.70811e+10 5.67218e+10 4.03532e+10 3.81525e+10 3.16687e+10 2.99318e+10 2.35964e+10 2.32094e+10 1.91377e+10 1.67747e+10 1.56238e+10 1.49666e+10 1.42999e+10 1.4189e+10 1.37509e+10 1.14571e+10 1.10208e+10 1.07737e+10 1.04745e+10 8.28518e+09 7.27269e+09 6.9796e+09 6.46312e+09 6.12534e+09
threshold=7.5000000000000009 6.5000000000000009 1844.5000000000002 1411.5000000000002 2.5000000000000004 2033.0000000000002 2293.5000000000005 -54.499999999999993 12393.500000000002 5.5000000000000009 1415.0000000000002 -28.499999999999996 10572.000000000002 1007.5000000000001 527.50000000000011 1245.0000000000002 1693.0000000000002 1709.5000000000002 1763.0000000000002 1144.5000000000002 809.00000000000011 298.00000000000006 1107.5000000000002 -26.499999999999996 1307.5000000000002 -21.499999999999996 -87.499999999999986 11262.500000000002 1767.5000000000002 5.5000000000000009
decision_type=2 2 2 2 2 2 2 2 2 2 2 2 2 2 2 2 2 2 2 2 2 2 2 10 2 10 2 2 2 2
left_child=1 3 4 7 10 8 16 19 11 15 14 -3 23 21 -2 26 -6 24 -14 20 -1 -9 -7 -11 -13 -15 -5 -18 -28 -23
right_child=2 5 -4 9 6 22 -8 13 -10 12 -12 17 18 25 -16 -17 27 -19 -20 -21 -22 29 -24 -25 -26 -27 28 -29 -30 -31
leaf_value=-6596.9868810519374 110.44449462890626 -2066.2750486675063 15788.696333931588 -4501.0176344651445 4734.0048316592265 3486.0855418812143 12456.695341435186 -4620.4058024088545 4185.3826243681069 -1828.6916019562752 6106.6921033027847 -369.107321398186 8.9407731437683111 -2302.935727596283 4330.8924432663689 -528.52300448947483 6722.6083886718761 2578.2279547649882 2736.5438611829604 -3935.3084372077192 -4362.5994650607636 -3481.5228486266315 6432.7899898274736 231.20878963026891 1609.4523798285591 -344.90394703791691 -3323.305758128447 9303.7597123579544 -1092.0289667038692 -1859.3257220643941
leaf_weight=71 22 38 37 26 21 22 27 72 34 62 39 66 40 128 21 36 20 46 37 71 45 79 30 43 45 26 34 22 21 33
leaf_count=71 22 38 37 26 21 22 27 72 34 62 39 66 40 128 21 36 20 46 37 71 45 79 30 43 45 26 34 22 21 33
internal_value=0 -1529.96 8089 -2658.65 6432.67 1779.8 8609.78 -3651.28 1006.32 -915.737 4043.16 452.022 -10.0393 -2878.14 2171.59 -2324.6 6961.09 1061.55 1319.61 -5048.72 -5730.2 -3636.24 5186.11 -985.113 433.011 -1972.36 -3122.86 8074.64 -2471.36 -3003.55
internal_weight=0 1105 209 824 172 281 90 525 229 299 82 195 182 338 43 117 63 157 77 187 116 184 52 105 111 154 81 42 55 112
internal_count=1314 1105 209 824 172 281 90 525 229 299 82 195 182 338 43 117 63 157 77 187 116 184 52 105 111 154 81 42 55 112
is_linear=0
shrinkage=0.1


Tree=5
num_leaves=31
num_cat=0
split_feature=9 9 9 1 11 6 6 13 6 11 0 3 12 11 11 0 12 6 2 8 11 7 8 12 7 6 12 12 11 6
split_gain=1.31721e+12 3.34364e+11 2.26951e+11 1.16199e+11 7.4512e+10 6.04477e+10 5.20393e+10 4.78279e+10 4.34203e+10 3.64422e+10 3.54783e+10 2.91974e+10 2.65623e+10 2.07026e+10 1.6328e+10 1.59225e+10 1.4857e+10 1.36045e+10 1.14331e+10 1.05801e+10 1.03694e+10 9.95978e+09 8.97258e+09 7.42529e+09 7.2876e+09 7.1092e+09 7.09301e+09 6.50946e+09 5.75548e+09 5.38345e+09
threshold=7.5000000000000009 6.5000000000000009 8.5000000000000018 1.0000000180025095e-35 1914.5000000000002 1937.5000000000002 2386.0000000000005 -50.499999999999993 1563.5000000000002 1500.5000000000002 1638.0000000000002 549.00000000000011 -22.499999999999996 1289.5000000000002 662.50000000000011 1148.5000000000002 -31.499999999999996 2259.5000000000005 1.5000000000000002 9.5000000000000018 601.00000000000011 3715.5000000000005 14.500000000000002 -42.499999999999993 9127.5000000000018 1730.0000000000002 -62.499999999999993 -41.499999999999993 752.50000000000011 1321.0000000000002
decision_type=2 2 2 2 2 2 2 2 2 2 2 2 2 2 2 2 2 2 2 2 2 2 2 2 2 2 2 2 2 2
left_child=1 3 6 7 -4 9 10 20 15 16 11 -2 14 19 -9 23 -3 22 -14 25 -1 -18 -7 -5 -16 -10 29 -21 -23 -22
right_child=2 5 4 8 -6 17 -8 12 13 -11 -12 -13 18 -15 24 -17 21 -19 -20 27 26 28 -24 -25 -26 -27 -28 -29 -30 -31
leaf_value=-6737.6738859953712 685.37351368871236 -1723.5017902374268 10011.806985212053 -3396.7997265625004 17663.2890625 2025.6823284280713 9048.0701106770848 -4682.9749659946992 -359.46238760514694 4234.9602541410013 6903.7799245981068 4594.5816218784885 -2390.5416601562501 2511.5518376668297 -3249.1123216417104 -809.18411249367591 -1217.1120076497398 6156.0917211359201 463.59181785583496 -2214.2773339843748 -5975.9660927220393 -505.68266369047615 4703.8236106178983 -1810.0515793372845 -2144.3254316142961 2245.5440209960939 -3590.1045865885421 21.794733992866849 1307.8342424011232 -4037.5836277173912
leaf_weight=27 29 32 35 60 20 29 30 56 22 26 39 56 25 36 144 83 24 22 32 30 38 21 22 58 102 20 45 23 105 23
leaf_count=27 29 32 35 60 20 29 30 56 22 26 39 56 25 36 144 83 24 22 32 30 38 21 22 58 102 20 45 23 105 23
internal_value=0 -1376.96 7280.1 -2392.78 12794.2 1601.82 5310.79 -3368.28 -947.174 732.93 4406.61 3260.85 -2768.16 469.401 -3141.85 -1870.41 232.64 4077.57 -788.221 -304.467 -4988.14 649.95 3180.96 -2616.87 -2791.03 881.017 -4542.51 -1243.91 1005.58 -5245.1
internal_weight=0 1105 209 824 55 281 154 492 332 208 124 85 359 131 302 201 182 73 57 95 133 150 51 118 246 42 106 53 126 61
internal_count=1314 1105 209 824 55 281 154 492 332 208 124 85 359 131 302 201 182 73 57 95 133 150 51 118 246 42 106 53 126 61
is_linear=0
shrinkage=0.1


Tree=6
num_leaves=31
num_cat=0
split_feature=9 6 9 9 11 6 6 11 5 7 11 0 9 5 7 8 13 8 7 0 3 11 5 3 9 7 13 3 5 12
split_gain=1.06694e+12 2.7828e+11 1.8383e+11 8.29812e+10 7.03688e+10 6.88392e+10 4.25034e+10 3.51762e+10 3.31741e+10 2.84335e+10 2.74198e+10 2.45797e+10 2.17597e+10 1.777e+10 1.65738e+10 1.33421e+10 1.21325e+10 1.1926e+10 1.14146e+10 1.02728e+10 9.91519e+09 9.45321e+09 8.9415e+09 7.9152e+09 5.85171e+09 7.40681e+09 5.22156e+09 5.07347e+09 4.89484e+09 4.77286e+09
threshold=7.5000000000000009 1478.5000000000002 8.5000000000000018 6.5000000000000009 1085.5000000000002 2232.0000000000005 1921.0000000000002 990.50000000000011 -51.499999999999993 13694.000000000002 1411.5000000000002 1464.5000000000002 5.5000000000000009 -31.499999999999996 13945.500000000002 7.5000000000000009 -32.499999999999993 14.500000000000002 12393.500000000002 1431.5000000000002 542.50000000000011 650.50000000000011 -31.499999999999996 689.50000000000011 4.5000000000000009 9746.0000000000018 -1.0000000180025095e-35 226.50000000000003 -59.499999999999993 -52.499999999999993
decision_type=2 2 2 2 2 2 2 2 10 2 2 2 2 10 2 2 2 2 2 2 2 2 10 2 2 2 2 2 10 2
left_child=1 4 6 9 8 -4 10 18 21 12 -2 23 28 -6 17 -11 24 -9 20 22 -5 -1 -14 -8 -10 -26 -12 -23 -3 -18
right_child=2 3 5 7 13 -7 11 14 16 15 26 -13 19 -15 -16 -17 29 -19 -20 -21 -22 27 -24 -25 25 -27 -28 -29 -30 -31
leaf_value=-5462.9555032169119 811.14971629175648 -3300.1337536473434 8285.1693554687499 -635.37796663324889 -1860.677784659646 15390.241484375001 3692.485095214844 1723.0501675813096 -4338.2658582899303 3598.6777971540178 3888.7854270533517 9004.1182617187496 -1817.4380967573686 154.72522778565857 5708.1453905029302 74.77006919167259 -3173.300061487269 4260.71000937185 2968.453528594971 1210.7057644314236 1626.085789535985 -4589.6606914445465 128.17056154737287 6505.8815405273444 -3402.4016004513469 -1615.2030680338542 5885.0002490234374 -3270.2308730181526 -1700.7743935546875 -1711.2069121131601
leaf_weight=51 29 31 30 47 88 25 20 46 36 21 38 27 44 87 25 22 27 31 20 36 33 51 51 20 78 33 20 68 50 129
leaf_count=51 29 31 30 47 88 25 20 46 36 21 38 27 44 87 25 22 27 31 20 36 33 51 51 20 78 33 20 68 50 129
internal_value=0 -1239.26 6552.09 650.421 -2571.96 11514.7 4779.71 2164.42 -3205.82 -548.905 3321.81 6672.81 -1024.47 -858.735 3471.04 1795.75 -2578.52 2744.71 831.671 -227.826 297.476 -4323.88 -772.953 5099.18 -3230.39 -2871.07 4577.14 -3835.7 -2312.87 -1964.26
internal_weight=0 1105 209 457 648 55 154 202 473 255 87 67 212 175 102 43 303 77 100 131 80 170 95 40 147 111 58 119 81 156
internal_count=1314 1105 209 457 648 55 154 202 473 255 87 67 212 175 102 43 303 77 100 131 80 170 95 40 147 111 58 119 81 156
is_linear=0
shrinkage=0.1


Tree=7
num_leaves=31
num_cat=0
split_feature=9 9 11 6 4 3 11 6 9 13 0 7 6 6 6 13 7 3 1 7 12 0 11 7 0 7 5 13 3 11
split_gain=8.6422e+11 2.28432e+11 1.56951e+11 1.00606e+11 5.80147e+10 4.30309e+10 3.82055e+10 3.54149e+10 3.00793e+10 2.18941e+10 1.70666e+10 1.66577e+10 1.55723e+10 1.40108e+10 1.13912e+10 1.13159e+10 1.11047e+10 1.10001e+10 8.99413e+09 8.64239e+09 8.45736e+09 8.28268e+09 7.59725e+09 7.27304e+09 6.12808e+09 5.62028e+09 5.61466e+09 5.33285e+09 4.10354e+09 3.98099e+09
threshold=7.5000000000000009 5.5000000000000009 1914.5000000000002 1718.5000000000002 2.5000000000000004 382.00000000000006 1040.5000000000002 2293.5000000000005 4.5000000000000009 -23.499999999999996 1415.0000000000002 9100.5000000000018 1204.0000000000002 2326.5000000000005 1693.0000000000002 -26.499999999999996 13945.500000000002 527.50000000000011 1.0000000180025095e-35 10384.000000000002 -60.499999999999993 1303.0000000000002 633.00000000000011 6867.5000000000009 892.50000000000011 11262.500000000002 -85.499999999999986 -44.499999999999993 547.00000000000011 1218.5000000000002
decision_type=2 2 2 2 2 2 2 2 2 2 2 2 2 2 2 2 2 2 2 2 2 2 2 2 2 2 10 2 2 2
left_child=1 8 4 5 10 23 9 14 20 19 17 24 -7 16 -6 -14 -8 -2 27 -5 26 28 -22 -3 -10 -16 -1 -13 -17 -20
right_child=2 3 -4 6 7 12 13 -9 11 -11 -12 18 15 -15 25 21 -18 -19 29 -21 22 -23 -24 -25 -26 -27 -28 -29 -30 -31
leaf_value=-6086.2046328124998 -140.65252574573864 -3677.9603515625004 12341.83842315674 -2201.4929878566577 3245.505201357887 -1641.1101015156714 1889.9255789620538 9412.9388061523441 -3677.9785766601562 1908.7640011257595 4291.7721611022953 -3068.8350436740457 -940.28354474235994 6054.807963256837 4816.6279833984372 -342.4477927174288 4843.7606079101561 3059.0601370675226 -1118.6433750059548 604.39053911481585 -4795.2239176432295 1314.4717509442066 -2623.5928547139074 -1896.1804949048965 -2490.3026529326694 7065.6831679687502 -4071.9946572580648 -1547.452540588379 1093.1891333946814 602.24848022460935
leaf_weight=25 22 36 32 23 21 58 35 28 65 81 40 36 68 20 20 85 20 21 41 21 24 83 49 63 131 25 31 64 26 20
leaf_count=25 22 36 32 23 21 58 35 28 65 81 40 36 68 20 20 85 20 21 41 21 24 83 49 63 131 25 31 64 26 20
internal_value=0 -1115.34 5896.88 158.664 4731.69 -722.133 2003.93 6432.9 -2737.99 933.342 2805.02 -2265.08 -158.461 3788.25 5168.64 169.759 2964.05 1422 -1511.39 -862.321 -4046.73 558.845 -3337.55 -2544.1 -2884.17 6066.1 -4971.2 -2095.15 -6.17248 -554.417
internal_weight=0 1105 209 619 177 419 200 94 486 125 83 357 320 75 66 262 55 43 161 44 129 194 73 99 196 45 56 100 111 61
internal_count=1314 1105 209 619 177 419 200 94 486 125 83 357 320 75 66 262 55 43 161 44 129 194 73 99 196 45 56 100 111 61
is_linear=0
shrinkage=0.1


Tree=8
num_leaves=31
num_cat=0
split_feature=9 6 10 9 4 4 7 11 8 12 12 11 11 7 6 13 0 10 7 12 12 3 3 0 1 6 6 0 5 7
split_gain=7.00018e+11 1.89079e+11 1.30521e+11 5.56497e+10 5.5139e+10 4.88693e+10 2.91187e+10 2.46483e+10 2.18751e+10 2.16808e+10 1.63844e+10 1.59947e+10 1.41846e+10 1.17042e+10 1.06413e+10 1.05009e+10 9.44079e+09 9.30491e+09 8.48515e+09 7.95715e+09 7.39487e+09 7.29778e+09 7.058e+09 5.44398e+09 5.09447e+09 4.92363e+09 4.76601e+09 4.46467e+09 4.04321e+09 3.27717e+09
threshold=7.5000000000000009 1478.5000000000002 9.5000000000000018 6.5000000000000009 2.5000000000000004 1.5000000000000002 13853.000000000002 990.50000000000011 6.5000000000000009 -51.499999999999993 -41.499999999999993 662.50000000000011 1401.5000000000002 13945.500000000002 1696.0000000000002 -21.499999999999996 1159.5000000000002 7.5000000000000009 12393.500000000002 -35.499999999999993 -93.499999999999986 202.50000000000003 527.50000000000011 1135.0000000000002 1.0000000180025095e-35 1850.5000000000002 1767.5000000000002 1077.5000000000002 -72.499999999999986 11262.500000000002
decision_type=2 2 2 2 2 2 2 2 2 2 2 2 2 2 2 2 2 2 2 2 2 2 2 2 2 2 2 2 10 2
left_child=1 5 4 8 12 11 14 18 16 -7 20 28 22 17 -6 -11 -3 -9 19 -5 -10 -13 -2 -17 -12 -22 -21 -23 -1 -16
right_child=2 3 -4 7 6 9 -8 13 10 15 24 21 -14 -15 29 23 -18 -19 -20 26 25 27 -24 -25 -26 -27 -28 -29 -30 -31
leaf_value=-5203.1188106142245 -259.39193004261364 201.73493063038794 10879.149522879465 -1509.9126440429689 2857.5086495535716 -2774.7297246368839 8661.8076998197121 1422.6137763977051 -3247.3914443359376 -1489.7550953922109 -1273.1265591708097 -3736.9837736046829 3661.9321919209251 4767.3937055664064 4730.1591349283854 -938.24912227162156 2914.6922806449561 3691.338125452502 2520.3655078125003 -68.729055293913817 -1748.0723424192338 -2629.7542638109221 2336.2160140991214 347.45367279052738 462.82865487712706 -3.0324804132634942 1714.7709199576545 -1591.0301265248081 -3667.9048020135788 6382.7260416666668
leaf_weight=29 22 29 35 20 21 71 26 48 25 117 22 46 37 25 24 57 23 29 20 31 61 151 20 78 73 22 29 57 42 24
leaf_count=29 22 29 35 20 21 71 26 48 25 117 22 46 37 25 24 57 23 29 20 31 61 151 20 78 73 22 29 57 42 24
internal_value=0 -1003.8 5307.19 553.847 4186.4 -2102.33 5809.73 1793.69 -428.306 -1231.23 -897.075 -2968.08 2234.29 2887.44 4735.03 -796.35 1401.7 2277.07 678.068 217.494 -1739.67 -2597.18 976.612 -195.399 60.818 -1285.53 793.296 -2345.1 -4294.96 5556.44
internal_weight=0 1105 209 457 174 648 95 202 255 323 203 325 79 102 69 252 52 77 100 80 108 254 42 135 95 83 60 208 71 48
internal_count=1314 1105 209 457 174 648 95 202 255 323 203 325 79 102 69 252 52 77 100 80 108 254 42 135 95 83 60 208 71 48
is_linear=0
shrinkage=0.1


Tree=9
num_leaves=31
num_cat=0
split_feature=9 9 11 6 6 13 3 1 9 11 0 7 7 11 13 13 0 3 6 9 2 11 7 7 3 11 13 7 12 12
split_gain=5.67014e+11 1.54127e+11 1.15329e+11 6.71603e+10 3.79233e+10 2.93564e+10 2.82004e+10 2.58183e+10 2.1562e+10 1.94451e+10 1.93925e+10 1.40399e+10 1.23625e+10 1.0776e+10 8.39096e+09 8.08267e+09 7.36686e+09 7.01979e+09 6.63456e+09 6.177e+09 5.84284e+09 5.827e+09 5.80238e+09 5.61539e+09 4.36756e+09 4.04977e+09 3.80088e+09 3.74272e+09 4.7922e+09 3.70714e+09
threshold=7.5000000000000009 5.5000000000000009 1914.5000000000002 1718.5000000000002 2600.0000000000005 -20.499999999999996 382.00000000000006 1.0000000180025095e-35 4.5000000000000009 1012.5000000000001 1646.5000000000002 10438.500000000002 11641.000000000002 1275.0000000000002 -31.499999999999996 -41.499999999999993 1749.0000000000002 564.50000000000011 2140.0000000000005 3.5000000000000004 1.5000000000000002 1149.5000000000002 7261.5000000000009 9127.5000000000018 520.50000000000011 861.50000000000011 -3.4999999999999996 12222.000000000002 -10.499999999999998 -77.499999999999986
decision_type=2 2 2 2 2 2 2 2 2 2 2 2 2 2 2 2 2 2 2 2 2 2 2 2 2 2 2 2 2 2
left_child=1 8 4 6 7 11 23 -2 19 27 17 -5 15 22 -15 -10 -12 -9 -11 -1 29 -14 -8 -3 -13 -21 -24 28 -7 -17
right_child=2 3 -4 5 -6 9 13 10 12 18 16 24 21 14 -16 20 -18 -19 -20 25 -22 -23 26 -25 -26 -27 -28 -29 -30 -31
leaf_value=-4755.7190234375003 308.562203125 -2620.8595563616072 10301.161465454103 -1818.1969364872687 7878.7684667968751 -71.189680547299588 -1285.5719193500022 1466.3669454823371 -2743.4147986602784 2918.7762510238153 6777.6394403872291 2177.9945874023438 -1313.0412361703268 -993.87589788022251 1161.8529846225467 -3240.2082635498045 4153.4418273925785 3495.08225146207 5084.8635920597953 -3539.456673990886 -579.59751418264284 648.8796382904053 -433.83705289740311 -1055.2407676272921 88.124465332031264 -2276.3801802201706 831.22111206054694 2599.1482821509953 1821.1980844497682 -1764.1471483197129
leaf_weight=25 25 63 32 27 20 23 69 23 120 31 23 20 41 23 84 20 20 66 26 60 38 24 114 36 20 44 30 21 32 114
leaf_count=25 25 63 32 27 20 23 69 23 120 31 23 20 41 23 84 20 20 66 26 60 38 24 114 36 20 44 30 21 32 114
internal_value=0 -903.424 4776.47 143.055 3777.66 1650.71 -576.591 3255.23 -2236.28 2510.61 3813.31 -56.2528 -1835.89 -120.277 698.472 -2113.53 5557.08 2970.81 3906.82 -3344.35 -1674.08 -588.64 -531.574 -2051.54 1133.06 -3005.08 -170.283 1463.46 1029.84 -1984.45
internal_weight=0 1105 209 619 177 200 419 157 486 133 132 67 357 320 107 292 43 89 57 129 172 65 213 99 40 104 144 76 55 134
internal_count=1314 1105 209 619 177 200 419 157 486 133 132 67 357 320 107 292 43 89 57 129 172 65 213 99 40 104 144 76 55 134
is_linear=0
shrinkage=0.1


Tree=10
num_leaves=31
num_cat=0
split_feature=9 6 9 10 13 0 6 6 13 7 5 3 0 7 13 13 11 6 9 12 7 8 0 6 6 11 12 12 13 1
split_gain=4.59282e+11 1.28247e+11 1.01565e+11 4.55527e+10 3.90653e+10 3.41916e+10 2.73911e+10 2.123e+10 2.16161e+10 1.79071e+10 1.70635e+10 1.64116e+10 1.2111e+10 1.13321e+10 9.97559e+09 7.76494e+09 7.40866e+09 6.45139e+09 5.57837e+09 5.23009e+09 5.19369e+09 3.98894e+09 3.65156e+09 3.96724e+09 3.53668e+09 3.50068e+09 3.40492e+09 3.33775e+09 3.24026e+09 3.0049e+09
threshold=7.5000000000000009 1478.5000000000002 8.5000000000000018 9.5000000000000018 -20.499999999999996 1144.5000000000002 1937.5000000000002 2386.0000000000005 -1.0000000180025095e-35 11001.500000000002 -61.499999999999993 397.50000000000006 1638.0000000000002 8984.0000000000018 -5.4999999999999991 -32.499999999999993 580.50000000000011 2293.5000000000005 5.5000000000000009 -88.499999999999986 12525.000000000002 14.500000000000002 695.00000000000011 1153.0000000000002 949.00000000000011 769.00000000000011 -68.499999999999986 -50.499999999999993 -7.4999999999999991 1.0000000180025095e-35
decision_type=2 2 2 2 2 2 2 2 2 2 10 2 2 2 2 2 2 2 2 2 2 2 2 2 2 2 2 2 2 2
left_child=1 5 7 -4 9 10 11 8 13 19 22 28 25 -2 27 16 -12 20 -11 -3 -8 -15 -1 -24 -18 -13 -17 -7 -6 -21
right_child=2 4 3 -5 6 14 17 -9 -10 18 15 12 -14 21 -16 26 24 -19 -20 29 -22 -23 23 -25 -26 -27 -28 -29 -30 -31
leaf_value=-4247.593968822338 -367.4616632634943 -2982.6255734398255 5725.81603716682 11649.465663364957 -266.89181256975451 -1900.0451123786695 1491.9237858952704 5368.4838460286464 4596.4092499704075 -653.21035526820594 -3908.2424804687503 -300.48214906964984 3224.5240761496807 1197.802138264974 596.4245084942512 -2513.6644414992561 -2677.3249880149151 4177.8569152832033 1129.8102245574303 -1995.2862760416665 3492.0606335449224 2794.2015022786459 -3388.8995307534433 -1960.4640894396553 -1690.6319173901993 953.07454887530139 -1150.03023579204 -735.76898512692799 -2003.5059487082742 -724.50669580576368
leaf_weight=27 22 21 34 21 21 33 37 30 33 28 24 28 22 24 53 21 55 23 47 30 20 45 59 29 107 109 143 97 22 49
leaf_count=27 22 21 34 21 21 33 37 30 33 28 24 28 22 24 53 21 55 23 47 30 20 45 59 29 107 109 143 97 22 49
internal_value=0 -813.081 4298.83 7987.57 469.757 -1717.8 1198.09 2981.42 2403.9 -703.905 -2173.49 577.868 1046.61 1608.81 -559.894 -1826.26 -2268.54 2764.16 464.149 -1579.95 2193.73 2238.93 -3230.29 -2918.17 -2025.62 696.873 -1324.64 -1031.32 -1155.39 -1207.08
internal_weight=0 1105 209 55 457 648 282 154 124 175 465 202 159 91 183 350 186 80 75 100 57 69 115 88 162 137 164 130 43 79
internal_count=1314 1105 209 55 457 648 282 154 124 175 465 202 159 91 183 350 186 80 75 100 57 69 115 88 162 137 164 130 43 79
is_linear=0
shrinkage=0.1


Tree=11
num_leaves=31
num_cat=0
split_feature=4 6 9 11 6 12 11 1 11 1 12 13 1 7 6 7 12 8 8 3 13 13 5 5 7 2 7 7 8 9
split_gain=3.7891e+11 1.36658e+11 1.14215e+11 5.3877e+10 4.11608e+10 2.49586e+10 1.95451e+10 1.83792e+10 1.65458e+10 1.61915e+10 1.23182e+10 1.10858e+10 1.31697e+10 8.17828e+09 6.87924e+09 6.79853e+09 7.21247e+09 7.81068e+09 6.43782e+09 4.78258e+09 4.13507e+09 3.93099e+09 3.72478e+09 3.62716e+09 3.2394e+09 3.65191e+09 2.91736e+09 2.77829e+09 2.40256e+09 2.39241e+09
threshold=2.5000000000000004 2633.5000000000005 6.5000000000000009 1676.5000000000002 1144.5000000000002 -1.4999999999999998 791.50000000000011 1.0000000180025095e-35 809.00000000000011 1.0000000180025095e-35 -24.499999999999996 -20.499999999999996 1.0000000180025095e-35 12222.000000000002 1937.5000000000002 5586.5000000000009 -14.499999999999998 14.500000000000002 10.500000000000002 507.00000000000006 -56.499999999999993 -50.499999999999993 -40.499999999999993 -71.499999999999986 7213.0000000000009 1.5000000000000002 7261.5000000000009 12427.500000000002 6.5000000000000009 7.5000000000000009
decision_type=2 2 2 2 2 2 2 2 2 2 2 2 2 2 2 2 2 2 2 2 2 2 8 10 2 2 2 2 2 2
left_child=2 3 4 9 8 -5 26 10 20 -2 21 -8 19 24 -11 -14 -17 28 -15 -13 -1 -6 -23 -10 -9 -26 -4 -25 -18 -19
right_child=1 -3 6 5 7 -7 11 13 23 14 -12 12 15 18 -16 16 17 29 -20 -21 -22 22 -24 27 25 -27 -28 -29 -30 -31
leaf_value=-4121.8161785703724 -437.02579096013852 11945.679771205358 -1562.6345492045084 3657.5420820312502 -2416.5474227905274 8042.4483000578712 -184.06010111028499 -1352.7084988839288 -2764.4798041449653 1527.98456363678 329.17565582275392 -637.28663330078132 571.64797167968754 1795.7151507753315 3454.9575012207033 3598.1897607421874 1624.6708336966378 2081.0830287388394 -102.067626953125 1046.7043923695883 -2767.0258142605635 -876.43237698078156 -1973.1523374430337 -1663.3369747353668 -795.39445563651418 176.38441950480146 -154.33930607845912 -495.79030887769613 189.63320877075196 3542.6167694091801
leaf_weight=33 22 21 24 25 56 27 44 35 27 32 35 26 25 33 44 35 28 21 39 48 71 64 60 179 74 81 38 23 20 24
leaf_count=33 22 21 24 25 56 27 44 35 27 32 35 26 25 33 44 35 28 21 39 48 71 64 60 179 74 81 38 23 20 24
internal_value=0 4390.31 -656.818 3332.56 -1297.76 5934.32 902.23 -702.149 -2150.93 1952.03 -1387.38 1268.67 1550.26 -139.843 2643.6 2079.98 2374.58 1914.08 767.749 455.032 -3196.91 -1721.15 -1407.1 -1675.9 -483.773 -287.562 -699.486 -1530.4 1026.74 2860.57
internal_weight=0 171 1143 150 810 52 333 477 333 98 215 271 227 262 76 153 128 93 72 74 104 180 124 229 190 155 62 202 48 45
internal_count=1314 171 1143 150 810 52 333 477 333 98 215 271 227 262 76 153 128 93 72 74 104 180 124 229 190 155 62 202 48 45
is_linear=0
shrinkage=0.1


Tree=12
num_leaves=31
num_cat=0
split_feature=4 6 9 11 6 6 12 1 6 11 1 12 8 8 0 11 1 6 11 6 8 11 12 7 12 3 11 6 7 3
split_gain=3.06917e+11 1.10693e+11 9.25144e+10 4.36404e+10 3.33403e+10 2.13735e+10 1.74514e+10 1.48872e+10 1.44969e+10 1.34021e+10 1.31152e+10 9.97778e+09 8.79872e+09 8.98742e+09 8.35727e+09 6.92441e+09 5.61159e+09 5.57218e+09 5.01084e+09 4.29954e+09 4.20755e+09 3.76522e+09 3.6122e+09 3.58245e+09 3.12263e+09 3.03769e+09 2.7995e+09 2.69984e+09 2.50669e+09 2.36078e+09
threshold=2.5000000000000004 2633.5000000000005 6.5000000000000009 1676.5000000000002 1144.5000000000002 1970.5000000000002 -76.499999999999986 1.0000000180025095e-35 1517.5000000000002 809.00000000000011 1.0000000180025095e-35 -24.499999999999996 14.500000000000002 6.5000000000000009 937.00000000000011 1436.5000000000002 1.0000000180025095e-35 1937.5000000000002 1259.0000000000002 2097.5000000000005 15.500000000000002 662.50000000000011 -70.499999999999986 11402.000000000002 -61.499999999999993 369.00000000000006 968.50000000000011 2033.0000000000002 7041.0000000000009 833.50000000000011
decision_type=2 2 2 2 2 2 2 2 2 2 2 2 2 2 2 2 2 2 2 2 2 2 2 2 2 2 2 2 2 2
left_child=2 3 4 10 9 -5 -4 11 18 22 -2 21 13 14 -10 19 -14 -12 -8 25 -20 -6 -1 -16 -11 -9 -15 -18 -23 -19
right_child=1 -3 6 5 7 -7 8 15 12 24 17 -13 16 26 23 -17 27 29 20 -21 -22 28 -24 -25 -26 -27 -28 -29 -30 -31
leaf_value=-3653.9127672697368 -393.32324329723014 10751.111678059897 -1675.5672619159407 3672.2377648138231 -2514.334066217596 7804.1342122395836 -568.41892253182152 -1104.597661614418 187.9206499273127 -2518.3467140480325 1375.1861057281494 296.25810455322267 954.53251604352681 743.09520334097056 1692.4588281804868 1162.2239624023439 2367.3629512586094 2440.7936347961427 -155.69446295224702 964.76827551800272 1582.3519510904948 -2044.3492040685705 -2430.0333907156282 3518.4703206380213 -1373.3066476519746 -239.0970040561391 -724.37179800180297 3802.7729718017581 -1092.8434185791016 3911.8635400390626
leaf_weight=38 22 21 26 31 33 21 55 56 22 27 32 35 21 26 22 36 38 24 26 23 30 37 66 21 202 147 26 20 110 20
leaf_count=38 22 21 26 31 33 21 55 56 22 27 32 35 21 26 22 36 38 24 26 23 30 37 66 21 202 147 26 20 110 20
internal_value=0 3951.28 -591.136 2999.3 -1167.98 5340.89 812.007 -631.934 1022.68 -1935.84 1756.83 -1248.64 1539.81 989.257 1773.17 -125.859 2355.2 2379.24 109.545 -331.04 775.402 -1549.04 -2877.22 2584.23 -1508.31 -477.856 9.3617 2862.33 -1332.34 3109.46
internal_weight=0 171 1143 150 810 52 333 477 307 333 98 215 196 117 65 262 79 76 111 226 56 180 104 43 229 203 52 58 147 44
internal_count=1314 171 1143 150 810 52 333 477 307 333 98 215 196 117 65 262 79 76 111 226 56 180 104 43 229 203 52 58 147 44
is_linear=0
shrinkage=0.1


Tree=13
num_leaves=31
num_cat=0
split_feature=9 9 4 7 6 9 13 3 9 7 11 7 7 7 12 3 0 3 13 6 7 9 6 3 13 11 12 7 3 7
split_gain=2.49e+11 7.21675e+10 6.16913e+10 7.16185e+10 3.03395e+10 2.171e+10 1.43458e+10 1.27425e+10 1.24237e+10 1.12675e+10 8.10934e+09 7.44229e+09 6.99037e+09 6.86611e+09 6.82861e+09 4.80969e+09 1.19589e+10 4.45189e+09 4.43174e+09 4.31086e+09 4.01488e+09 3.97717e+09 3.56348e+09 3.04733e+09 2.9079e+09 2.67552e+09 2.60754e+09 2.46064e+09 2.2428e+09 1.99588e+09
threshold=7.5000000000000009 5.5000000000000009 2.5000000000000004 14826.500000000002 1718.5000000000002 8.5000000000000018 -16.499999999999996 382.00000000000006 4.5000000000000009 14130.000000000002 951.50000000000011 10355.500000000002 14556.500000000002 9595.5000000000018 -27.499999999999996 618.50000000000011 1283.5000000000002 575.50000000000011 -31.499999999999996 1796.5000000000002 5912.5000000000009 3.5000000000000004 2033.0000000000002 505.50000000000006 -49.499999999999993 1149.5000000000002 -81.499999999999986 7261.5000000000009 511.50000000000006 10165.000000000002
decision_type=2 2 2 2 2 2 2 2 2 2 2 2 2 2 2 2 2 2 2 2 2 2 2 2 2 2 2 2 2 2
left_child=1 8 15 5 7 19 11 20 21 10 29 -6 14 18 27 16 -2 -12 28 -4 -3 -1 -13 -16 -22 -15 -20 -9 -10 -8
right_child=2 4 3 -5 6 -7 9 12 13 -11 17 22 -14 25 23 -17 -18 -19 26 -21 24 -23 -24 -25 -26 -27 -28 -29 -30 -31
leaf_value=-3484.3267627563473 -53.90035775991587 -2483.5054936726888 1572.7975146993003 9781.7056862571026 -1160.7978950237407 5627.5436363220215 1109.8715957031252 -1687.8106259765625 -2181.4375783284504 3888.6516978870736 1280.5444805326915 -130.47518549380095 1660.6188707351685 -922.81848734142716 -182.16311362856914 -73.901413981119788 2744.6166941049942 3274.2606908162434 -2097.2851348876952 3176.3524208470394 -1760.1232161458336 -2079.5883348318248 1501.3715764820577 625.92013101123632 -489.10078559027784 68.580761883709883 -822.25913658613047 -557.68269013904398 -1017.3808990478516 -166.83179712295532
leaf_weight=25 26 24 30 22 29 32 25 25 96 22 21 23 22 103 105 24 37 24 20 38 30 104 32 84 45 37 81 84 20 24
leaf_count=25 26 24 30 22 29 32 25 25 96 22 21 23 22 103 105 24 37 24 20 38 30 104 32 84 45 37 81 84 20 24
internal_value=0 -598.679 3165.26 4616.1 117.403 3479.67 1130.73 -366.287 -1510.73 1851.44 1374.64 135.474 -59.5526 -1206.8 -186.545 1130.76 1589.67 2343.86 -1559.05 2468.9 -1357.75 -2351.82 818.963 176.985 -997.51 -660.806 -1074.74 -816.886 -1980.74 484.547
internal_weight=0 1105 209 122 619 100 200 419 486 116 94 84 320 357 298 87 63 45 217 68 99 129 55 189 75 140 101 109 116 49
internal_count=1314 1105 209 122 619 100 200 419 486 116 94 84 320 357 298 87 63 45 217 68 99 129 55 189 75 140 101 109 116 49
is_linear=0
shrinkage=0.1


Tree=14
num_leaves=31
num_cat=0
split_feature=9 6 6 0 7 13 6 12 13 7 3 11 11 6 0 12 6 6 1 6 0 3 13 1 8 7 6 5 7 12
split_gain=2.0169e+11 5.94101e+10 5.31961e+10 2.70463e+10 2.15896e+10 2.28533e+10 1.99875e+10 1.81028e+10 1.20011e+10 1.14296e+10 1.10357e+10 7.14586e+09 6.61501e+09 6.32652e+09 6.03862e+09 5.93478e+09 4.3411e+09 4.23475e+09 3.75804e+09 3.6151e+09 3.54877e+09 3.32762e+09 2.93283e+09 2.43329e+09 2.25105e+09 2.38967e+09 3.34359e+09 2.22307e+09 2.17311e+09 2.15449e+09
threshold=7.5000000000000009 1489.5000000000002 2788.0000000000005 1646.5000000000002 22175.000000000004 -20.499999999999996 2019.5000000000002 -60.499999999999993 -21.499999999999996 8002.0000000000009 517.00000000000011 580.50000000000011 881.00000000000011 2140.0000000000005 1767.0000000000002 -88.499999999999986 1953.5000000000002 1132.5000000000002 1.0000000180025095e-35 980.50000000000011 1164.5000000000002 388.50000000000006 -5.4999999999999991 1.0000000180025095e-35 13.500000000000002 9606.0000000000018 1912.5000000000002 -60.499999999999993 7847.5000000000009 -65.499999999999986
decision_type=2 2 2 2 2 2 2 2 2 2 2 2 2 2 2 2 2 2 2 2 2 2 2 2 2 2 2 8 2 2
left_child=1 7 3 9 5 15 14 17 11 -2 16 -9 -12 23 -5 -3 21 27 -17 -13 -10 -7 -22 -14 -11 -26 -27 -1 -21 -20
right_child=2 4 -4 6 -6 10 -8 8 20 24 12 19 13 -15 -16 18 -18 -19 29 28 22 -23 -24 -25 25 26 -28 -29 -30 -31
leaf_value=-2015.359759364984 -768.16874496459968 -2162.2172011718753 7753.1012060546873 3919.7353085937502 3414.4293262828487 -933.32524342256443 6561.2578588867182 -2693.1462614982361 -637.16003552298264 933.76996256510415 381.90134257266396 -1616.8456596286819 604.12632649739578 3524.4681860351566 1721.8049077148437 -1279.1556363733805 1284.3849170139858 -1524.6469988848712 790.14913757324223 -1536.5784399523054 -394.89755709330245 252.14120975639196 723.26057926100134 1922.4816996120273 3012.0903552827385 761.42981247674857 2349.1833550347224 -3052.3085016424011 -657.45779431749895 -383.08631760279337
leaf_weight=39 20 25 20 25 22 34 20 31 117 21 38 87 21 20 25 41 28 74 20 35 45 78 49 42 21 21 36 44 143 72
leaf_count=39 20 25 20 25 22 34 20 31 117 21 38 87 21 20 25 41 28 74 20 35 45 78 49 42 21 21 36 44 143 72
internal_value=0 -538.811 2848.74 2329.76 360.922 200.595 3889.48 -1136.37 -845.815 1412.27 775.208 -1256.59 1474.65 1974.94 2820.77 -748.608 170.691 -2074.68 -482.892 -1088.54 -269.566 -107.733 187.972 1483.03 1852.76 2100.19 1764.22 -2565.07 -830.319 -128.035
internal_weight=0 1105 209 189 441 419 70 664 507 119 261 296 121 83 50 158 140 157 133 265 211 112 94 63 99 78 57 83 178 92
internal_count=1314 1105 209 189 441 419 70 664 507 119 261 296 121 83 50 158 140 157 133 265 211 112 94 63 99 78 57 83 178 92
is_linear=0
shrinkage=0.1


Tree=15
num_leaves=31
num_cat=0
split_feature=4 6 6 11 13 11 1 12 8 7 1 5 0 5 13 9 3 11 12 6 3 11 7 9 3 0 3 7 5 8
split_gain=1.67441e+11 7.27845e+10 5.17547e+10 2.63079e+10 2.52312e+10 1.42245e+10 1.3433e+10 1.00034e+10 8.56553e+09 8.67289e+09 8.53823e+09 8.18366e+09 7.39379e+09 7.11488e+09 5.93088e+09 3.69611e+09 3.31392e+09 3.27246e+09 3.13874e+09 3.08372e+09 4.16255e+09 3.13478e+09 2.9209e+09 2.91945e+09 2.80712e+09 2.67819e+09 2.6722e+09 2.51893e+09 1.99775e+09 1.92015e+09
threshold=2.5000000000000004 2633.5000000000005 1283.5000000000002 1914.5000000000002 -20.499999999999996 793.50000000000011 1.0000000180025095e-35 -60.499999999999993 20.500000000000004 12007.000000000002 1.5000000000000002 -13.499999999999998 1681.0000000000002 -50.499999999999993 -33.499999999999993 6.5000000000000009 833.50000000000011 580.50000000000011 -86.499999999999986 1912.5000000000002 470.50000000000006 1126.5000000000002 7190.0000000000009 6.5000000000000009 486.50000000000006 1467.0000000000002 172.00000000000003 8002.0000000000009 -65.499999999999986 6.5000000000000009
decision_type=2 2 2 2 2 2 2 2 2 2 2 8 2 10 2 2 2 2 2 2 2 2 2 2 2 2 2 2 8 2
left_child=2 3 7 6 10 -6 -2 26 9 19 13 15 16 18 17 -11 -8 -9 -4 20 -7 -21 -15 -24 -16 -12 -1 -22 -20 -28
right_child=1 -3 4 -5 5 8 12 14 -10 11 25 -13 -14 22 24 -17 -18 -19 28 21 27 -23 23 -25 -26 -27 29 -29 -30 -31
leaf_value=-2957.5911150896991 -469.10662854003908 8432.3700892857141 -2701.6953329540434 5428.875874255953 -410.19046631600099 -537.15807222638819 1007.4680255268895 -2440.3044831496022 2130.8018262676164 1638.953250732422 -71.518244934082034 415.31381642659511 3436.7855915323898 -1410.7190606011286 -875.80290327652642 3561.4802099609378 2363.8179750504037 -1226.248726613898 -465.90731183052071 1864.6031962076825 1520.6251121884302 169.44805351257324 -30.005943046648483 -1356.9191662597657 -36.588712836093592 1481.0190794372559 -1080.1514174804688 267.65915676565731 -1700.6548486809982 -2134.1633465358191
leaf_weight=27 25 21 21 21 103 56 43 26 51 20 25 30 30 27 115 20 31 152 20 24 21 20 97 20 61 20 25 68 38 56
leaf_count=27 25 21 21 21 103 56 43 26 51 20 25 30 30 27 115 20 31 152 20 24 21 20 97 20 61 20 25 68 38 56
internal_value=0 2918.49 -436.624 2146.55 117.617 607.946 1612.21 -1253.59 946.231 712.975 -638.002 1663.83 2112.53 -891.556 -996.573 2600.22 1575.67 -1403.58 -1654.16 360.807 138.297 1094.08 -473.183 -256.829 -584.939 618.498 -2096.04 563.303 -1274.88 -1808.85
internal_weight=0 171 1143 150 681 413 129 462 310 259 268 70 104 223 354 40 74 178 79 189 145 44 144 117 176 45 108 89 58 81
internal_count=1314 171 1143 150 681 413 129 462 310 259 268 70 104 223 354 40 74 178 79 189 145 44 144 117 176 45 108 89 58 81
is_linear=0
shrinkage=0.1


Tree=16
num_leaves=31
num_cat=0
split_feature=4 9 4 3 13 1 13 6 12 11 1 7 8 13 7 6 11 3 12 7 11 8 0 3 12 7 7 0 0 8
split_gain=1.35627e+11 6.03239e+10 4.26931e+10 3.34218e+10 1.94101e+10 1.76053e+10 1.10163e+10 1.07585e+10 9.72175e+09 7.88547e+09 7.70071e+09 6.28084e+09 5.68421e+09 5.46761e+09 4.63508e+09 4.21907e+09 4.05567e+09 4.00767e+09 3.47929e+09 3.3725e+09 3.30316e+09 3.21287e+09 3.18415e+09 2.54649e+09 2.4479e+09 3.77362e+09 2.20573e+09 1.91988e+09 1.74756e+09 1.71521e+09
threshold=2.5000000000000004 8.5000000000000018 1.5000000000000002 802.00000000000011 -14.499999999999998 1.0000000180025095e-35 -22.499999999999996 1970.5000000000002 -14.499999999999998 685.00000000000011 1.5000000000000002 8730.5000000000018 6.5000000000000009 -1.0000000180025095e-35 6613.5000000000009 1489.5000000000002 1487.0000000000002 545.00000000000011 -31.499999999999996 9091.0000000000018 839.50000000000011 20.500000000000004 1088.5000000000002 209.00000000000003 -40.499999999999993 12222.000000000002 11085.500000000002 1039.5000000000002 1303.0000000000002 13.500000000000002
decision_type=2 2 2 2 2 2 2 2 2 2 2 2 2 2 2 2 2 2 2 2 2 2 2 2 2 2 2 2 2 2
left_child=2 4 9 -3 -2 8 11 -6 20 19 13 -7 15 17 -10 -11 24 -8 -19 -1 27 -16 23 -14 28 -26 -20 -4 -13 -22
right_child=1 3 5 -5 7 6 10 -9 14 12 -12 16 22 -15 21 -17 -18 18 26 -21 29 -23 -24 -25 25 -27 -28 -29 -30 -31
leaf_value=-2353.7315200160929 -1223.6607455166902 2953.4009351647419 -1189.3797068277995 8287.9077952067073 1209.3688054319289 -1395.1673285091626 219.76949751736367 3304.0591519983809 -837.15150667463024 -692.93031694279171 2431.2519550868446 8.8813216018676755 -2183.9248259626115 2114.1888401349383 176.0094921221052 1036.3074709574382 1406.2074148995537 -10.353648223876954 1051.1412638201034 -1003.1751942138671 -401.70999911024768 1538.3172147004502 -655.73422189060648 -1228.1825903899478 -286.82466414168078 1418.0813055419922 2367.6050695800782 -2375.3415329706104 -1256.7907498677573 -1208.0150334800162
leaf_weight=71 22 23 39 24 61 34 146 41 35 43 28 20 35 24 70 21 21 20 35 25 74 23 79 137 37 20 20 21 24 41
leaf_count=71 22 23 39 24 61 34 146 41 35 43 28 20 35 24 70 21 21 20 35 25 74 23 79 137 37 20 20 21 24 41
internal_value=0 2626.64 -392.962 5677.4 1470.3 64.9916 477.145 2051.35 -518.553 -1208.59 860.208 -193.215 -966.778 680.661 143.763 -125.524 141.755 524.983 1119.13 -2002.02 -1002.99 512.924 -1181.28 -1422.67 -121.151 311.388 1529.86 -1604.47 -681.485 -689.175
internal_weight=0 171 1143 47 124 732 429 102 303 411 273 156 315 245 128 64 122 221 75 96 175 93 251 172 101 57 55 60 44 115
internal_count=1314 171 1143 47 124 732 429 102 303 411 273 156 315 245 128 64 122 221 75 96 175 93 251 172 101 57 55 60 44 115
is_linear=0
shrinkage=0.1


Tree=17
num_leaves=31
num_cat=0
split_feature=4 6 9 11 13 7 11 7 7 8 9 13 6 1 3 3 7 0 13 6 7 6 3 11 13 9 3 0 7 7
split_gain=1.09858e+11 5.46133e+10 3.55707e+10 1.8541e+10 1.40045e+10 1.38927e+10 8.30352e+09 7.39295e+09 6.69632e+09 9.70307e+09 6.65277e+09 5.33455e+09 5.13738e+09 5.06397e+09 3.89967e+09 6.74711e+09 5.63056e+09 3.81762e+09 3.6468e+09 3.64018e+09 3.58978e+09 3.41896e+09 2.80891e+09 2.92326e+09 2.5527e+09 2.31772e+09 2.13171e+09 1.80159e+09 1.63484e+09 1.55394e+09
threshold=2.5000000000000004 2633.5000000000005 5.5000000000000009 1618.0000000000002 -20.499999999999996 12899.000000000002 793.50000000000011 5000.5000000000009 7486.0000000000009 6.5000000000000009 4.5000000000000009 -51.499999999999993 1800.5000000000002 1.0000000180025095e-35 646.00000000000011 545.00000000000011 14281.500000000002 1354.5000000000002 -37.499999999999993 1898.0000000000002 9595.5000000000018 1415.0000000000002 523.50000000000011 685.00000000000011 -19.499999999999996 3.5000000000000004 833.50000000000011 1315.0000000000002 8952.0000000000018 9501.5000000000018
decision_type=2 2 2 2 2 2 2 2 2 2 2 2 2 2 2 2 2 2 2 2 2 2 2 2 2 2 2 2 2 2
left_child=2 3 10 12 8 -5 -6 -8 -4 -10 25 -11 -2 -9 15 16 17 29 21 -17 22 -13 23 -12 28 -1 -14 -20 -25 -15
right_child=1 -3 4 5 6 -7 7 13 9 11 20 18 26 14 -16 19 -18 -19 27 -21 -22 -23 -24 24 -26 -27 -28 -29 -30 -31
leaf_value=-2550.8409476902175 -187.44124080113002 7140.2270362490708 -1504.739198596661 1756.975875029693 -370.56619543778271 4773.2902918888967 -606.75454195462748 306.62824213081433 1611.8014306640625 -1661.4343621253968 -2225.1951547851563 -314.23151906769851 786.87697535923553 -444.66350244592741 27.64037352341872 1582.7500287737166 2411.5167596726192 1432.1188072204591 -274.15646694607204 3324.4398931594123 -393.08548138472287 1299.3110221862794 -304.45200619581271 -1143.7960987332501 -465.76162942769582 -1438.5539306640626 2071.2215911865237 -1284.895558061271 -2155.9025421142578 578.28456150401723
leaf_weight=23 35 21 52 37 95 26 39 107 25 32 25 29 28 27 26 28 21 35 45 21 137 24 41 79 49 101 24 29 20 33
leaf_count=23 35 21 52 37 95 26 39 107 25 32 25 29 28 27 26 28 21 35 45 21 137 24 41 79 49 101 24 29 20 33
internal_value=0 2363.98 -353.666 1695.3 116.75 3001.8 455.172 687.947 -502.735 -219.56 -1015.22 -507.51 749.212 857.388 1165.93 1345.3 929.685 602.122 -216.758 2329.19 -792.779 416.429 -1048.66 -1225.03 -1056.08 -1644.87 1379.65 -670.257 -1348.26 117.958
internal_weight=0 171 1143 150 668 63 432 337 236 184 475 159 87 298 191 165 116 95 127 49 351 53 214 173 148 124 52 74 99 60
internal_count=1314 171 1143 150 668 63 432 337 236 184 475 159 87 298 191 165 116 95 127 49 351 53 214 173 148 124 52 74 99 60
is_linear=0
shrinkage=0.1


Tree=18
num_leaves=31
num_cat=0
split_feature=9 0 8 6 1 3 13 6 7 7 9 11 12 5 5 6 7 0 11 8 7 12 7 7 6 0 5 6 5 12
split_gain=8.99996e+10 4.52974e+10 5.12939e+10 5.93536e+10 1.26124e+10 1.21967e+10 7.9474e+09 6.40295e+09 5.91161e+09 4.42339e+09 3.61617e+09 3.46097e+09 3.32697e+09 3.03519e+09 2.5707e+09 2.44665e+09 2.43062e+09 2.2633e+09 2.25457e+09 2.78655e+09 3.55222e+09 3.5073e+09 1.90893e+09 1.68264e+09 1.5995e+09 2.11154e+09 1.56574e+09 1.29794e+09 1.28962e+09 1.27624e+09
threshold=6.5000000000000009 1638.0000000000002 14.500000000000002 2232.0000000000005 1.0000000180025095e-35 547.00000000000011 -50.499999999999993 2386.0000000000005 12393.500000000002 18845.000000000004 4.5000000000000009 1474.0000000000002 -20.499999999999996 -46.499999999999993 -1.0000000180025095e-35 1028.5000000000002 12719.500000000002 700.00000000000011 601.00000000000011 6.5000000000000009 7213.0000000000009 -40.499999999999993 3189.0000000000005 9029.5000000000018 937.00000000000011 1072.5000000000002 -88.499999999999986 1351.0000000000002 -27.499999999999996 -13.499999999999998
decision_type=2 2 2 2 2 2 2 2 2 2 2 2 2 8 10 2 2 2 2 2 2 2 2 2 2 2 10 2 10 2
left_child=4 5 -3 16 6 8 17 14 12 11 -8 18 13 -2 -7 -12 -4 -1 -6 20 -20 -21 -14 28 -19 -26 -17 -24 -23 -28
right_child=1 2 3 -5 9 7 10 -9 -10 -11 15 -13 22 -15 -16 26 -18 24 19 21 -22 23 27 -25 25 -27 29 -29 -30 -31
leaf_value=-2546.5038796164772 -188.05391418457032 -351.18258300781253 1970.211039167132 8522.3187860903545 -1379.3552490234376 629.82758709741029 -1469.2290672196284 2269.9136731599506 1282.1839077127393 1242.7499476841519 -975.15549105864307 871.53314782714847 -842.05714055841622 -1930.2347796630861 1705.0644698531539 -1173.7953443353827 3352.1557281494142 -2046.0568910660286 -554.49897583007817 -821.05248841981631 1233.5158173370362 -1050.2907670454547 -524.0928420257568 283.07767586427576 -873.59566297029198 -2008.7197838824732 -406.77863975942955 382.56645859781906 59.216149978637695 281.80899763396292
leaf_weight=22 20 35 35 23 20 126 54 38 29 21 104 25 22 20 27 22 20 31 20 111 25 22 20 68 57 23 146 75 20 33
leaf_count=22 20 35 35 23 20 126 54 38 29 21 104 25 22 20 27 22 20 31 20 111 25 22 20 68 57 23 146 75 20 33
internal_value=0 1073.22 2829.4 4256.59 -638.2 546.829 -959.582 1108.12 -29.5541 -161.936 -714.953 -256.786 -271.85 -1059.14 819.575 -581.409 2472.74 -1619.9 -355.415 -278.427 438.843 -424.478 -2.68914 -24.2981 -1436.25 -1199.94 -377.679 191.691 -521.954 -279.832
internal_weight=0 490 113 78 824 377 492 191 186 332 359 311 157 40 153 305 55 133 286 266 45 221 117 110 111 80 201 95 42 179
internal_count=1314 490 113 78 824 377 492 191 186 332 359 311 157 40 153 305 55 133 286 266 45 221 117 110 111 80 201 95 42 179
is_linear=0
shrinkage=0.1


Tree=19
num_leaves=31
num_cat=0
split_feature=9 1 0 13 3 6 1 12 13 5 3 6 6 11 8 7 12 1 12 0 6 3 13 12 3 6 5 7 6 6
split_gain=7.28997e+10 3.76501e+10 4.02656e+10 1.73284e+10 1.33827e+10 1.08736e+10 1.0216e+10 7.53301e+09 6.74044e+09 4.62064e+09 4.13207e+09 4.00797e+09 3.87782e+09 3.66547e+09 4.67452e+09 4.58533e+09 3.35236e+09 2.88089e+09 2.68069e+09 2.54369e+09 2.46025e+09 2.29729e+09 1.93991e+09 1.77397e+09 2.33809e+09 2.77343e+09 1.72189e+09 1.51686e+09 1.48301e+09 1.42379e+09
threshold=6.5000000000000009 1.5000000000000002 1717.5000000000002 -1.0000000180025095e-35 798.00000000000011 1649.0000000000002 1.0000000180025095e-35 -31.499999999999996 -34.499999999999993 -57.499999999999993 839.50000000000011 2220.0000000000005 2033.0000000000002 648.50000000000011 6.5000000000000009 7213.0000000000009 -50.499999999999993 1.0000000180025095e-35 -85.499999999999986 1487.5000000000002 1720.5000000000002 286.50000000000006 -9.4999999999999982 -2.4999999999999996 549.00000000000011 1837.0000000000002 -39.499999999999993 8389.0000000000018 949.00000000000011 1693.0000000000002
decision_type=2 2 2 2 2 2 2 2 2 10 2 2 2 2 2 2 2 2 2 2 2 2 2 2 2 2 8 2 2 2
left_child=6 3 -3 4 7 -5 8 26 9 18 -7 17 -6 -8 15 -15 -16 29 -1 22 21 -10 27 24 -19 -26 -2 -18 -11 -9
right_child=1 2 -4 5 12 10 13 11 20 28 -12 -13 -14 14 16 -17 19 23 -20 -21 -22 -23 -24 -25 25 -27 -28 -29 -30 -31
leaf_value=-2665.4877300555891 -534.32191955566407 1362.321861715878 7017.0220312499996 679.80698304787666 1049.2059862409321 3711.9451285226005 -1363.6402014690898 -46.750088768674622 -1041.5680573381696 -1418.1597937689887 1829.9844287109377 1313.6084432081743 2801.6161520253058 -499.04907211303708 -844.64877101673801 1355.404387512207 -961.67423477172861 191.3359838485718 -1443.5138751852101 837.13893180057914 537.0706653941761 -338.25045961435291 493.53939865574694 -415.2642250754617 1859.8342718760175 354.85372277832033 -1846.5295513916017 -156.46048590999911 -754.03376375356117 -928.29331845883974
leaf_weight=26 20 34 20 39 28 28 23 57 70 45 20 33 23 20 68 40 32 70 58 29 22 138 33 22 24 25 20 87 133 27
leaf_count=26 20 34 20 39 28 28 23 57 70 45 20 33 23 20 68 40 32 70 58 29 22 138 33 22 24 25 20 87 133 27
internal_value=0 965.897 3456.66 657.408 342.646 1920.08 -574.38 86.4713 -863.624 -1210.42 2927.79 284.44 1839.51 -145.742 -55.0897 737.253 -246.016 133.495 -1821.74 -21.115 -468.577 -574.944 -184.861 409.681 562.192 1091.99 -1190.43 -372.989 -921.931 -330.103
internal_weight=0 490 54 436 349 87 824 298 492 262 48 258 51 332 309 60 249 225 84 181 230 208 152 141 119 49 40 119 178 84
internal_count=1314 490 54 436 349 87 824 298 492 262 48 258 51 332 309 60 249 225 84 181 230 208 152 141 119 49 40 119 178 84
is_linear=0
shrinkage=0.1


Tree=20
num_leaves=31
num_cat=0
split_feature=4 10 6 13 12 13 6 5 11 7 7 3 8 3 3 6 3 6 13 0 7 12 11 8 7 8 12 0 0 13
split_gain=5.99322e+10 3.63102e+10 2.06064e+10 1.22245e+10 1.21918e+10 9.58387e+09 6.99734e+09 5.64464e+09 5.53962e+09 5.37134e+09 4.73509e+09 4.22511e+09 3.66228e+09 3.63231e+09 3.46016e+09 3.40345e+09 3.37996e+09 4.0998e+09 3.28712e+09 2.62229e+09 2.51373e+09 2.90687e+09 2.38503e+09 2.41826e+09 5.74517e+09 3.12114e+09 1.70749e+09 1.57353e+09 1.46806e+09 1.67652e+09
threshold=2.5000000000000004 9.5000000000000018 1144.5000000000002 -14.499999999999998 -87.499999999999986 -22.499999999999996 1822.0000000000002 -41.499999999999993 1351.0000000000002 17713.000000000004 13853.000000000002 226.50000000000003 7.5000000000000009 492.50000000000006 576.50000000000011 2259.5000000000005 876.00000000000011 1700.5000000000002 -4.4999999999999991 1137.5000000000002 12719.500000000002 -76.499999999999986 628.00000000000011 6.5000000000000009 7486.0000000000009 8.5000000000000018 -2.4999999999999996 912.50000000000011 948.50000000000011 -30.499999999999996
decision_type=2 2 2 2 2 2 2 10 2 2 2 2 2 2 2 2 2 2 2 2 2 2 2 2 2 2 2 2 2 2
left_child=2 3 11 -2 27 9 8 -8 13 22 16 -1 -9 26 18 19 17 -5 -10 -14 21 -13 -6 24 -24 -25 -7 -4 29 -23
right_child=1 -3 4 10 5 6 7 12 14 -11 -12 20 15 -15 -16 -17 -18 -19 -20 -21 -22 28 23 25 -26 -27 -28 -29 -30 -31
leaf_value=-1698.0926860357588 -1240.6450759887696 4783.0796039581301 -622.99037399292001 491.59883849703033 -1435.7722231778232 -208.49726779514288 2628.9894079589849 -258.58909375000002 627.68643798828134 1223.1723574683781 2517.8288632265726 -1801.8947204589845 1315.1581463623047 473.54375769783468 -148.24397125244141 2254.400142211914 -79.535776367187509 2053.2241906356812 2072.3522805350167 -141.82702811104912 298.1690208798363 -1301.4368633668814 -770.30628532741389 -1682.7327468872072 1517.4209731329056 -362.87263226619984 -1178.2981808617003 -1532.1233034823804 -470.84287897636153 -544.7110877954043
leaf_weight=57 20 32 32 29 22 134 20 25 36 21 30 28 30 85 24 20 20 40 28 21 21 67 23 20 21 172 21 47 116 52
leaf_count=57 20 32 32 29 22 134 20 25 36 21 30 28 30 85 24 20 20 40 28 21 21 67 23 20 21 172 21 47 116 52
internal_value=0 1746.05 -261.221 1046.88 15.6442 144.526 433.136 1100.68 197.052 -314.768 1431.34 -912.381 782.288 -51.7987 875.735 1148.79 1065.11 1396.89 1259.73 715.223 -754.685 -838.753 -439.949 -347.118 321.564 -500.358 -339.89 -1163.87 -723.996 -970.767
internal_weight=0 171 1143 139 802 723 444 116 328 279 119 341 96 240 88 71 89 69 64 51 284 263 258 236 44 192 155 79 235 119
internal_count=1314 171 1143 139 802 723 444 116 328 279 119 341 96 240 88 71 89 69 64 51 284 263 258 236 44 192 155 79 235 119
is_linear=0
shrinkage=0.1


Tree=21
num_leaves=31
num_cat=0
split_feature=4 11 6 13 13 6 12 6 5 8 5 12 0 7 0 0 7 3 11 8 8 3 0 11 6 7 7 0 2 13
split_gain=4.85451e+10 3.14723e+10 1.67162e+10 9.0772e+09 8.86206e+09 5.28084e+09 4.95996e+09 5.25679e+09 4.95866e+09 4.77863e+09 5.21405e+09 4.39288e+09 4.23867e+09 3.13042e+09 2.59852e+09 2.47687e+09 2.47658e+09 2.3626e+09 1.98918e+09 1.49161e+09 1.4554e+09 1.33161e+09 3.75082e+09 1.30544e+09 1.29296e+09 1.23249e+09 1.19662e+09 1.15428e+09 1.11036e+09 1.0662e+09
threshold=2.5000000000000004 1914.5000000000002 1238.0000000000002 -14.499999999999998 -20.499999999999996 2386.0000000000005 -87.499999999999986 1898.0000000000002 -6.4999999999999991 6.5000000000000009 -50.499999999999993 -68.499999999999986 1638.0000000000002 12007.000000000002 662.00000000000011 1607.0000000000002 7597.5000000000009 495.50000000000006 1018.0000000000001 6.5000000000000009 20.500000000000004 568.00000000000011 1574.5000000000002 1351.0000000000002 1066.0000000000002 11838.500000000002 8510.0000000000018 1283.5000000000002 1.5000000000000002 -57.499999999999993
decision_type=2 2 2 2 2 2 2 2 8 2 10 2 2 2 2 2 2 2 2 2 2 2 2 2 2 2 2 2 2 2
left_child=2 3 11 -2 9 15 -6 12 13 16 18 19 17 -9 -13 -5 -4 23 26 -1 -19 22 27 -8 -16 -17 -11 28 -12 -21
right_child=1 -3 4 5 6 -7 7 8 -10 10 21 14 -14 -15 24 25 -18 20 -20 29 -22 -23 -24 -25 -26 -27 -28 -29 -30 -31
leaf_value=-747.867222764757 -908.92450783469474 4573.4540097993004 -310.03712280273442 432.41668548583988 -794.06133597237726 2475.8189377357221 -255.39569038846599 996.05264642177485 -84.630721435546889 -2203.681660461426 -478.44128824869796 -1473.7570710280847 1300.6542177088122 2396.7969214545355 -646.17851287540634 954.35366051413803 1146.9400094168527 239.98408315558183 -585.08259203510897 -2217.3498663039436 1043.9193707883358 -747.70399054449956 1189.3469597625733 495.37150617327006 -226.89619297027591 2025.393142918178 -1198.2290802001953 -773.79885729108537 335.83806614595301 -1333.5519967886119
leaf_weight=27 22 29 20 48 35 29 134 39 25 20 33 29 34 27 190 22 28 76 31 21 32 37 20 28 120 21 29 35 34 39
leaf_count=27 22 29 20 48 35 29 134 39 25 20 33 29 34 27 190 22 28 76 31 21 32 37 20 28 120 21 29 35 34 39
internal_value=0 1571.45 -235.099 958.362 59.6766 1300.7 346.896 447.994 1114.77 -370.653 -553.519 -731.234 248.401 1569.08 -568.556 926.209 539.866 115.895 -1212 -1365.12 478.187 -222.208 -62.8368 -125.633 -483.876 1477.42 -1608.62 -308.363 -65.2249 -1642.88
internal_weight=0 171 1143 142 717 120 430 395 91 287 239 426 304 66 339 91 48 270 80 87 108 159 122 162 310 43 49 102 67 60
internal_count=1314 171 1143 142 717 120 430 395 91 287 239 426 304 66 339 91 48 270 80 87 108 159 122 162 310 43 49 102 67 60
is_linear=0
shrinkage=0.1


Tree=22
num_leaves=31
num_cat=0
split_feature=4 6 6 11 9 12 13 6 5 7 0 11 8 0 3 6 10 11 7 8 8 7 12 3 0 0 5 7 5 6
split_gain=3.93215e+10 2.89555e+10 1.36981e+10 8.90243e+09 8.46755e+09 8.28929e+09 6.28489e+09 4.59272e+09 4.37366e+09 3.90742e+09 3.87698e+09 3.68736e+09 3.16212e+09 3.07956e+09 2.51606e+09 1.83646e+09 1.99252e+09 1.73772e+09 1.68927e+09 4.80588e+09 1.87933e+09 1.94935e+09 1.52218e+09 1.3697e+09 1.34326e+09 1.29063e+09 9.90302e+08 8.41088e+08 8.27987e+08 9.31725e+08
threshold=2.5000000000000004 2633.5000000000005 1144.5000000000002 1608.0000000000002 8.5000000000000018 -87.499999999999986 -22.499999999999996 1822.0000000000002 -41.499999999999993 17713.000000000004 1638.0000000000002 1429.0000000000002 21.500000000000004 764.50000000000011 575.50000000000011 1937.5000000000002 8.5000000000000018 628.00000000000011 7091.0000000000009 6.5000000000000009 10.500000000000002 11863.000000000002 -68.499999999999986 600.50000000000011 1389.5000000000002 912.50000000000011 -34.499999999999993 3189.0000000000005 -41.499999999999993 1049.0000000000002
decision_type=2 2 2 2 2 2 2 2 10 2 2 2 2 2 2 2 2 2 2 2 2 2 2 2 2 2 8 2 10 2
left_child=2 3 13 15 -5 25 9 10 -9 17 12 14 23 -1 -10 -2 -17 -7 -19 -20 -21 26 -15 27 -23 -4 -22 -8 29 -24
right_child=1 -3 5 4 -6 6 7 8 11 -11 -12 -13 -14 22 -16 16 -18 18 19 20 21 24 28 -25 -26 -27 -28 -29 -30 -31
leaf_value=-1435.2992376345176 -263.20921582673731 4892.0969575427835 -468.59019708633423 846.30079795435859 3162.4246189823862 -1208.2992922696201 -636.8893175397601 2240.2367092895506 508.22831802368165 1060.2059268043156 1266.8109867490573 -556.54751441592259 1270.4173004150391 -1119.6949044986648 1714.8985930266206 1396.1639792306084 86.516594725388757 -862.52121783000678 1235.7609707919037 -1175.1119279944378 -174.53314119466145 -173.64006507873535 -904.59389544035264 510.32943166732787 -1294.2020205290421 -1291.9525295825715 489.92891125679017 -53.579472097062393 -324.2332806417765 -313.11664547803929
leaf_weight=54 38 21 32 38 27 22 28 20 48 21 29 21 20 49 27 21 26 41 22 23 75 20 76 40 23 47 32 211 121 41
leaf_count=54 38 21 32 38 27 22 28 20 48 21 29 21 20 49 27 21 26 41 22 23 75 20 76 40 23 47 32 211 121 41
internal_value=0 1414.3 -211.589 927.412 1808.38 14.1453 120.417 354.134 894.952 -251.52 162.869 614.685 55.7972 -742.494 942.63 253.729 671.678 -358.289 -279.05 -156.372 -333.406 -204.345 -612.14 -31.2724 -773.01 -958.439 24.1845 -121.917 -507.643 -697.324
internal_weight=0 171 1143 150 65 802 723 444 116 279 328 96 299 341 75 85 47 258 236 195 173 150 287 279 43 79 107 239 238 117
internal_count=1314 171 1143 150 65 802 723 444 116 279 328 96 299 341 75 85 47 258 236 195 173 150 287 279 43 79 107 239 238 117
is_linear=0
shrinkage=0.1


Tree=23
num_leaves=31
num_cat=0
split_feature=4 10 13 13 7 6 7 12 0 0 6 11 7 3 6 3 6 8 8 7 0 3 7 3 3 7 6 13 7 12
split_gain=3.18504e+10 2.48123e+10 1.14302e+10 7.60337e+09 6.42855e+09 5.64666e+09 4.25161e+09 3.78954e+09 3.41111e+09 5.39745e+09 4.81593e+09 2.9496e+09 2.93091e+09 3.07919e+09 2.39047e+09 2.27537e+09 2.24142e+09 2.76906e+09 2.69201e+09 2.3181e+09 2.20773e+09 1.70158e+09 1.66804e+09 1.88138e+09 1.66383e+09 1.57965e+09 1.35964e+09 1.37645e+09 1.29492e+09 1.13868e+09
threshold=2.5000000000000004 9.5000000000000018 -20.499999999999996 -14.499999999999998 18845.000000000004 1517.5000000000002 6125.0000000000009 -87.499999999999986 1767.0000000000002 1638.0000000000002 1931.0000000000002 580.50000000000011 13853.000000000002 876.00000000000011 1700.5000000000002 286.50000000000006 1081.0000000000002 6.5000000000000009 10.500000000000002 11863.000000000002 1389.5000000000002 202.50000000000003 7261.5000000000009 590.00000000000011 557.00000000000011 12222.000000000002 860.50000000000011 -12.499999999999998 9937.5000000000018 -68.499999999999986
decision_type=2 2 2 2 2 2 2 2 2 2 2 2 2 2 2 2 2 2 2 2 2 2 2 2 2 2 2 2 2 2
left_child=2 3 4 -2 6 15 21 -7 9 10 22 -8 13 14 -5 -4 29 -18 -19 24 -21 -1 -9 -24 -20 28 -17 -28 -12 -13
right_child=1 -3 5 12 -6 7 11 8 -10 -11 25 16 -14 -15 -16 26 17 18 19 20 -22 -23 23 -25 -26 -27 27 -29 -30 -31
leaf_value=-1984.8437416770241 -1109.1667653274537 3783.4175445556643 -719.75254223932996 335.38310736294454 1165.5179188121449 -872.53187866210942 -1313.6566973299596 -542.92886258638816 -603.80146059782612 2201.7101434616816 1372.9239477539063 -1377.8048844770954 1852.9060913085939 -382.55051879882814 1527.8240708160401 -826.9156506347656 637.02711005933361 -1112.8594654284025 -128.70886549009896 -102.22129113333567 -1336.8817858886721 -963.30661009531184 144.7945471396813 1175.2881458629261 827.19229213169638 1898.0216871781786 -552.377195520962 138.48027453372353 333.22528659986415 -590.88023331335614
leaf_weight=22 20 32 61 29 22 20 37 26 23 21 25 22 30 20 40 20 33 38 137 28 30 63 91 22 21 22 34 190 23 112
leaf_count=22 20 32 61 29 22 20 37 26 23 21 25 22 30 20 40 20 33 38 137 28 30 63 91 22 21 22 34 190 23 112
internal_value=0 1272.87 -190.43 694.906 -510.277 122.224 -578.173 452.594 557.347 673.462 519.906 -457.627 998.111 709.978 1026.65 -173.485 -382.394 -224.73 -336.69 -200.142 -740.839 -1227.7 179.255 345.422 -1.65871 1196.34 -36.9176 33.618 874.735 -720.077
internal_weight=0 171 1143 139 565 578 543 273 253 230 209 458 119 89 69 305 421 287 254 216 58 85 139 113 158 70 244 224 48 134
internal_count=1314 171 1143 139 565 578 543 273 253 230 209 458 119 89 69 305 421 287 254 216 58 85 139 113 158 70 244 224 48 134
is_linear=0
shrinkage=0.1


Tree=24
num_leaves=31
num_cat=0
split_feature=11 8 6 11 13 6 8 7 9 11 7 7 3 5 5 3 3 7 10 0 8 8 12 5 12 8 8 13 3 0
split_gain=2.71514e+10 3.1527e+10 5.94216e+10 2.62366e+10 1.18729e+10 8.81554e+09 4.89693e+09 4.72745e+09 3.26604e+09 3.20301e+09 2.44801e+09 2.28888e+09 2.62717e+09 2.10212e+09 1.93396e+09 1.92443e+09 2.71884e+09 1.89498e+09 1.81738e+09 1.61237e+09 1.61174e+09 1.55959e+09 1.40368e+09 1.2281e+09 1.22379e+09 1.18519e+09 1.08325e+09 1.03423e+09 1.01224e+09 9.75211e+08
threshold=1500.5000000000002 14.500000000000002 2232.0000000000005 1752.5000000000002 -14.499999999999998 1921.0000000000002 10.500000000000002 18845.000000000004 4.5000000000000009 1259.0000000000002 6125.0000000000009 12719.500000000002 822.00000000000011 -12.499999999999998 -47.499999999999993 568.00000000000011 480.50000000000006 6613.5000000000009 5.5000000000000009 1127.5000000000002 6.5000000000000009 20.500000000000004 -82.499999999999986 -64.499999999999986 -84.499999999999986 8.5000000000000018 10.500000000000002 -39.499999999999993 349.50000000000006 1299.5000000000002
decision_type=2 2 2 2 2 2 2 2 2 2 2 2 2 8 10 2 2 2 2 2 2 2 2 10 2 2 2 2 2 2
left_child=4 3 11 6 7 9 -2 8 24 14 23 12 -3 -7 26 16 -11 -16 27 -15 -20 -19 -22 -10 -1 -24 -6 28 -12 -27
right_child=1 2 -4 -5 5 13 -8 -9 10 15 18 -13 -14 19 17 -17 -18 21 20 -21 22 -23 25 -25 -26 29 -28 -29 -30 -31
leaf_value=-1708.9207747025926 1628.5971230643136 1121.6792483681127 6604.7912398020435 -3457.8107770647325 -149.32055053710937 1618.9236343383791 -318.01276626586917 990.74790402367 -1641.7993075561526 239.99664339338028 -615.72905620574954 1751.7990553635818 -272.01908075241818 1123.1572610994665 -546.87409621416509 -167.04736515925481 1725.5441367409449 3.7806964495028668 394.303707807492 256.22743001302086 -926.60833563035544 937.0527862548829 -907.08376631303281 -709.11121457417812 -867.87912488395784 7.85977749824524 -901.70682067871098 -331.88931262446386 -1417.2168070866512 -466.49783834641977
leaf_weight=22 28 38 24 21 31 32 24 21 20 28 40 26 21 41 59 26 22 171 39 45 31 20 22 48 81 144 50 51 26 62
leaf_count=22 28 38 24 21 31 32 24 21 20 28 40 26 21 41 59 26 22 171 39 45 31 20 22 48 81 144 50 51 26 62
internal_value=0 1133.67 2210.76 -474.597 -182.268 165.965 730.162 -483.458 -536.288 -54.6773 -427.268 970.096 625.617 926.994 -189.101 530.772 893.638 -51.5121 -336.138 669.531 -205.013 101.506 -295.258 -983.431 -1047.52 -209.416 -613.757 -670.112 -931.467 -134.908
internal_weight=0 182 109 73 1132 525 52 607 586 407 483 85 59 118 331 76 50 250 415 86 298 191 259 68 103 228 81 117 66 206
internal_count=1314 182 109 73 1132 525 52 607 586 407 483 85 59 118 331 76 50 250 415 86 298 191 259 68 103 228 81 117 66 206
is_linear=0
shrinkage=0.1


Tree=25
num_leaves=31
num_cat=0
split_feature=1 11 12 3 8 10 11 7 13 8 11 11 13 6 12 12 7 7 3 12 5 3 8 5 0 3 12 6 3 8
split_gain=2.40487e+10 2.62424e+10 1.77346e+10 9.20891e+09 5.01937e+09 6.56664e+09 6.10617e+09 4.09879e+09 4.04473e+09 3.34234e+09 3.3068e+09 2.91514e+09 2.61497e+09 2.23183e+09 2.15678e+09 1.99648e+09 1.86427e+09 1.81559e+09 1.73549e+09 1.55584e+09 2.44814e+09 1.25997e+09 1.13669e+09 1.093e+09 1.02903e+09 2.19269e+09 2.68592e+09 1.52132e+09 9.59261e+08 9.23263e+08
threshold=1.5000000000000002 1635.0000000000002 -31.499999999999996 901.00000000000011 13.500000000000002 9.5000000000000018 1618.0000000000002 14408.500000000002 -1.0000000180025095e-35 16.500000000000004 580.50000000000011 1263.0000000000002 -15.499999999999998 1552.5000000000002 -96.499999999999986 -86.499999999999986 9528.0000000000018 6411.0000000000009 833.50000000000011 -2.4999999999999996 -14.499999999999998 587.00000000000011 11.500000000000002 -30.499999999999996 1273.0000000000002 542.50000000000011 -46.499999999999993 1127.0000000000002 476.50000000000006 8.5000000000000018
decision_type=2 2 2 2 2 2 2 2 2 2 2 2 2 2 2 2 2 2 2 2 10 2 2 8 2 2 2 2 2 2
left_child=2 7 9 4 6 8 11 22 18 10 -1 17 15 -13 -11 -12 -10 -4 19 20 -6 28 -2 29 27 26 -26 -17 -22 -14
right_child=1 -3 3 -5 5 -7 -8 -9 16 14 12 13 23 -15 -16 24 -18 -19 -20 -21 21 -23 -24 -25 25 -27 -28 -29 -30 -31
leaf_value=-1038.1482064151764 780.55674292824494 4606.0468389601938 -867.56320249495968 2389.3168530273438 -167.24300111282705 2236.276449584961 -1798.1644580078128 1711.7102431077224 1828.0905509617016 -1612.8751577069684 -1204.941975346318 173.51471297320199 880.78357001410586 1504.8057983398439 -695.02109686014603 -466.77325321231876 613.03448551722931 -25.927560713484482 1060.777766723633 -555.28509635925298 820.54911281040734 1112.5229337565104 -122.66355663098787 -336.22770673311675 -1079.3535400390626 -1527.1465734863282 539.89651576450899 56.784095860386756 -54.796566181798134 131.26777234758649
leaf_weight=60 22 21 31 20 86 20 20 26 23 31 27 34 27 20 147 111 28 148 20 32 21 30 38 26 20 20 21 111 31 42
leaf_count=60 22 21 31 20 86 20 20 26 23 31 27 34 27 20 147 111 28 148 20 32 21 30 38 26 20 20 21 111 31 42
internal_value=0 1436.85 -127.376 281.907 204.429 487.659 -121.342 662.971 358.609 -486.373 -345.314 22.5918 -242.671 666.585 -854.872 -383.337 1161 -171.686 172.6 83.7825 205.51 596.445 208.517 216.342 -304.95 -668.724 -249.982 -204.995 298.708 424.557
internal_weight=0 107 1207 564 544 291 253 86 271 643 465 233 405 54 178 310 51 179 220 200 168 82 60 95 283 61 41 222 52 69
internal_count=1314 107 1207 564 544 291 253 86 271 643 465 233 405 54 178 310 51 179 220 200 168 82 60 95 283 61 41 222 52 69
is_linear=0
shrinkage=0.1


Tree=26
num_leaves=31
num_cat=0
split_feature=2 1 13 7 11 3 6 13 12 8 8 12 0 11 5 8 7 0 6 7 7 7 8 0 3 11 3 3 9 0
split_gain=2.11273e+10 1.27236e+10 6.26306e+09 6.04929e+09 3.62189e+09 4.48955e+09 6.29739e+09 3.42277e+09 2.31379e+09 1.99602e+09 2.42594e+09 2.0448e+09 1.94535e+09 1.68831e+09 1.67003e+09 1.35563e+09 1.33435e+09 1.4019e+09 1.68903e+09 1.1407e+09 1.44978e+09 1.06755e+09 1.06001e+09 1.14289e+09 9.74798e+08 1.54068e+09 9.28008e+08 8.49796e+08 8.35363e+08 8.06426e+08
threshold=2.5000000000000004 1.0000000180025095e-35 -5.4999999999999991 20662.500000000004 781.50000000000011 888.50000000000011 2019.5000000000002 -16.499999999999996 -60.499999999999993 6.5000000000000009 5.5000000000000009 -40.499999999999993 1638.0000000000002 580.50000000000011 -85.499999999999986 20.500000000000004 9029.5000000000018 1646.5000000000002 2340.5000000000005 9966.0000000000018 12007.000000000002 5385.0000000000009 16.500000000000004 964.50000000000011 658.00000000000011 1303.0000000000002 529.50000000000011 274.00000000000006 5.5000000000000009 912.50000000000011
decision_type=2 2 2 2 2 2 2 2 2 2 2 2 2 2 10 2 2 2 2 2 2 2 2 2 2 2 2 2 2 2
left_child=1 7 3 9 -4 6 12 8 14 10 26 28 24 -10 -1 21 29 18 19 -18 -21 -9 27 -24 25 -6 -3 -23 -11 -13
right_child=-2 2 4 -5 5 -7 -8 15 13 11 -12 16 -14 -15 -16 -17 17 -19 -20 20 -22 22 23 -25 -26 -27 -28 -29 -30 -31
leaf_value=-1570.7284901646208 2623.2919376627606 -311.78803701689753 -562.97765183221725 1687.4989879789807 144.47251027425131 -561.1878413609096 2105.512294201973 -809.85282233101987 -1113.643754196167 -174.31568984327646 1194.6235094510591 127.77517256303268 1256.3431678185098 -332.39047485309493 -706.71932953865303 363.32710558020551 837.79092407226562 -515.83073666890459 1094.1523954971979 -292.36454066906947 535.31378513682978 -551.51652941894542 -63.956727952223559 -992.86132948133672 -133.41213328043622 1076.2226771763394 538.5782493954614 85.906949055194858 -678.24449756019999 -625.99108213424688
leaf_weight=35 30 33 21 21 36 21 39 28 32 58 26 22 39 204 62 46 20 24 23 59 33 25 26 27 24 35 21 128 76 40
leaf_count=35 30 33 21 21 36 21 39 28 32 58 26 22 39 204 62 46 20 24 23 59 33 25 26 27 24 35 21 128 76 40
internal_value=0 -61.2919 239.586 29.8039 684.52 819.558 987.163 -390.638 -607.316 -50.2228 401.017 -151.911 661.674 -438.323 -1018.48 -132.946 34.9712 188.41 313.609 153.318 4.52008 -230.504 -151.757 -537.172 417.546 603.786 18.91 -18.2472 -460.126 -358.526
internal_weight=0 1284 671 456 215 194 173 613 333 435 80 355 134 236 97 280 221 159 135 112 92 234 206 53 95 71 54 153 134 62
internal_count=1314 1284 671 456 215 194 173 613 333 435 80 355 134 236 97 280 221 159 135 112 92 234 206 53 95 71 54 153 134 62
is_linear=0
shrinkage=0.1


Tree=27
num_leaves=31
num_cat=0
split_feature=1 11 12 3 0 8 11 0 7 8 9 5 11 6 11 13 12 3 7 12 0 7 13 0 13 10 6 0 3 8
split_gain=1.77486e+10 1.99552e+10 1.17234e+10 7.75267e+09 3.65414e+09 3.54925e+09 5.92274e+09 5.28949e+09 3.40509e+09 2.50261e+09 2.38701e+09 2.29105e+09 2.17016e+09 1.84108e+09 1.69145e+09 1.74787e+09 1.68425e+09 1.5707e+09 1.36809e+09 1.10234e+09 1.07535e+09 1.01825e+09 1.01537e+09 1.40452e+09 1.07715e+09 9.81584e+08 8.83112e+08 1.02102e+09 1.06763e+09 8.36854e+08
threshold=1.5000000000000002 1635.0000000000002 -31.499999999999996 896.50000000000011 1495.0000000000002 13.500000000000002 1603.0000000000002 1681.0000000000002 11838.500000000002 16.500000000000004 4.5000000000000009 -1.0000000180025095e-35 1263.0000000000002 1523.5000000000002 580.50000000000011 -5.4999999999999991 -96.499999999999986 440.50000000000006 4430.5000000000009 -60.499999999999993 1631.0000000000002 3715.5000000000005 -10.499999999999998 1186.5000000000002 -1.4999999999999998 7.5000000000000009 896.50000000000011 1254.5000000000002 262.50000000000006 11.500000000000002
decision_type=2 2 2 2 2 2 2 2 2 2 2 10 2 2 2 2 2 2 2 2 2 2 2 2 2 2 2 2 2 2
left_child=2 4 9 5 17 6 12 11 -9 10 19 21 18 -14 -12 20 -11 -2 -4 -1 25 -7 23 -23 -24 -16 -18 28 -28 -17
right_child=1 -3 3 -5 -6 7 -8 8 -10 16 14 -13 13 -15 15 29 26 -19 -20 -21 -22 22 24 -25 -26 -27 27 -29 -30 -31
leaf_value=-1162.1603400977881 727.04608753345633 3997.9758091517856 -909.79668404715403 2021.4683328379758 1607.2322551727295 -599.27481475830086 -1778.564421386719 409.75080915178569 2121.802963491587 -1390.0145883867817 -889.31778495788569 1000.2647827148438 60.947771809895841 1250.1348781419838 -216.84441661442258 960.00890716552738 -1163.1580388849432 -288.09464660644534 -50.693898497955708 -448.07339868178735 -900.92135951995851 328.6000806231832 616.87773983478553 -454.51385368814272 -73.093879394531243 323.60222621819912 -850.87237625122077 -1112.1059007917133 -143.65864060891641 84.157426548004153
leaf_weight=37 27 21 21 23 24 20 20 21 26 31 30 31 30 23 243 20 22 35 158 52 20 43 64 49 35 39 30 21 74 24
leaf_count=37 27 21 21 23 24 20 20 21 26 31 30 31 30 23 243 20 22 35 158 52 20 43 64 49 35 39 30 21 74 24
internal_value=0 1234.37 -109.427 223.34 559.541 146.894 -127.401 386.072 1356.84 -401.309 -279.248 197.534 14.9404 577.01 -169.018 -106.564 -720.175 153.983 -151.482 -744.941 -192.355 79.5972 150.683 -88.4932 372.948 -142.102 -578.916 -476.089 -347.663 482.272
internal_weight=0 107 1207 564 86 541 252 289 47 643 465 242 232 53 376 346 178 62 179 89 302 211 191 92 99 282 147 125 104 44
internal_count=1314 107 1207 564 86 541 252 289 47 643 465 242 232 53 376 346 178 62 179 89 302 211 191 92 99 282 147 125 104 44
is_linear=0
shrinkage=0.1


Tree=28
num_leaves=31
num_cat=0
split_feature=2 1 0 1 13 0 13 0 6 13 7 11 11 12 7 0 5 5 12 11 13 3 3 8 12 0 0 11 3 5
split_gain=1.58234e+10 8.50603e+09 4.12515e+09 5.19657e+09 3.98375e+09 3.33746e+09 2.59301e+09 2.58894e+09 2.52931e+09 2.36829e+09 2.26793e+09 2.32917e+09 2.09526e+09 1.95322e+09 1.87991e+09 2.17103e+09 1.68352e+09 1.49357e+09 1.36254e+09 1.2633e+09 1.06303e+09 9.5423e+08 1.5297e+09 1.64669e+09 1.33435e+09 1.27243e+09 1.04301e+09 8.1083e+08 7.68908e+08 9.05882e+08
threshold=2.5000000000000004 1.0000000180025095e-35 1483.0000000000002 1.5000000000000002 -1.0000000180025095e-35 1846.0000000000002 -5.4999999999999991 1354.5000000000002 1827.0000000000002 -16.499999999999996 8389.0000000000018 1202.5000000000002 797.00000000000011 -29.499999999999996 7213.0000000000009 1135.0000000000002 -85.499999999999986 -31.499999999999996 -84.499999999999986 555.00000000000011 -48.499999999999993 505.50000000000006 471.50000000000006 17.500000000000004 -14.499999999999998 964.50000000000011 1088.5000000000002 696.50000000000011 459.50000000000006 -66.499999999999986
decision_type=2 2 2 2 2 2 2 2 2 2 2 2 2 2 2 2 10 10 2 2 2 2 2 2 2 2 2 2 2 8
left_child=1 9 6 4 5 8 7 10 13 16 28 20 -8 -4 -14 -16 18 -9 -1 -18 -12 22 23 25 -23 -11 -27 -21 29 -3
right_child=-2 2 3 -5 -6 -7 12 17 -10 21 11 -13 14 -15 15 -17 19 -19 -20 27 -22 24 -24 -25 -26 26 -28 -29 -30 -31
leaf_value=-1569.0536336263021 2270.251005045573 331.59720153808598 -730.84255026112442 1609.1407101362181 1283.9670955882355 -1054.7177490234376 -423.3493080832742 -1292.3535378676197 1281.464994012742 48.148736341944286 -415.2431224101299 1014.3768291219076 -51.733739764873803 350.55630283043035 426.45877737862725 1596.4682596140894 -979.71824710730345 -198.38310686747235 -584.94446653478292 140.49516687104196 187.90148147198795 -478.3598456021013 -850.21985628400535 589.52460327148435 303.78594116731125 -1148.5979701664137 -215.49089257812503 -392.8919045808783 -821.93856484549383 -431.74110061357607
leaf_weight=24 30 22 23 39 34 22 22 26 21 53 37 30 26 61 35 29 33 24 34 33 139 29 35 27 88 23 25 209 28 53
leaf_count=24 30 22 23 39 34 22 22 26 21 53 37 30 26 61 35 29 33 24 34 33 139 29 35 27 88 23 25 209 28 53
internal_value=0 -53.0432 192.965 573.464 322.586 65.2089 31.3942 -99.6607 299.86 -322.328 8.36309 199.93 451.472 54.459 665.317 956.619 -502.565 -767.248 -992.162 -399.305 61.104 -107.975 -264.378 -104.187 109.921 -289.635 -662.605 -320.157 -374.771 -207.829
internal_weight=0 1284 671 200 161 127 471 359 105 613 309 206 112 84 90 64 333 50 58 275 176 280 163 128 117 101 48 242 103 75
internal_count=1314 1284 671 200 161 127 471 359 105 613 309 206 112 84 90 64 333 50 58 275 176 280 163 128 117 101 48 242 103 75
is_linear=0
shrinkage=0.1


Tree=29
num_leaves=31
num_cat=0
split_feature=3 8 7 7 3 5 7 13 1 0 3 8 12 9 8 10 12 5 5 11 6 5 8 7 7 5 7 8 7 5
split_gain=1.28715e+10 2.38873e+10 3.52437e+10 7.65421e+09 5.81902e+09 5.08043e+09 3.20664e+09 3.16064e+09 4.09557e+09 1.83876e+09 1.80113e+09 1.48332e+09 1.61857e+09 2.00219e+09 1.56182e+09 1.53882e+09 1.47358e+09 1.4593e+09 1.27029e+09 1.32958e+09 1.46695e+09 9.08921e+08 1.04642e+09 8.18178e+08 2.08719e+09 1.20817e+09 1.15839e+09 1.09574e+09 9.8832e+08 7.95467e+08
threshold=785.00000000000011 13.500000000000002 13853.000000000002 25190.500000000004 876.00000000000011 -1.0000000180025095e-35 8895.5000000000018 -15.499999999999998 1.5000000000000002 662.00000000000011 629.00000000000011 6.5000000000000009 -31.499999999999996 6.5000000000000009 5.5000000000000009 5.5000000000000009 -2.4999999999999996 -1.4999999999999998 -88.499999999999986 601.00000000000011 1435.5000000000002 -51.499999999999993 18.500000000000004 13113.000000000002 12007.000000000002 -17.499999999999996 10122.500000000002 13.500000000000002 8120.5000000000009 -66.499999999999986
decision_type=2 2 2 2 2 10 2 2 2 2 2 2 2 2 2 2 2 10 10 2 2 10 2 2 2 10 2 2 2 10
left_child=3 -2 4 5 -3 7 -7 9 16 -1 11 14 13 15 -11 -13 18 -18 -9 -20 -21 29 -23 24 25 -22 27 -27 -29 -17
right_child=1 2 -4 -5 -6 6 -8 8 -10 10 -12 12 -14 -15 -16 21 17 -19 19 20 23 22 -24 -25 -26 26 -28 28 -30 -31
leaf_value=-1022.1690350002714 -1270.0045289935488 1357.4785315880408 5238.8837109441347 1794.9548531668527 -707.22909691220241 1847.2767444610597 176.65947898582178 -678.68070874023442 1182.9944126674106 -106.37113565473415 -1098.3725069486179 -655.80313331604009 55.804662647681397 -1259.2778624901405 881.97680983770465 -141.12190473401867 -1008.7094026692708 -108.30755099826388 -523.1427500406902 -143.29920662267364 838.02291078920723 64.515148593533425 -633.23838161505182 -195.5006799221039 1222.8671864827475 -3.2146713524533994 -355.47484142596909 187.12588174993343 1135.0040888006038 -780.65888548129942
leaf_weight=36 33 39 23 21 21 20 27 25 28 67 26 110 92 26 21 37 30 45 36 137 27 124 26 32 24 57 39 22 22 41
leaf_count=36 33 39 23 21 21 20 27 25 28 67 26 110 92 26 21 37 30 45 36 137 27 124 26 32 24 57 39 22 22 41
internal_value=0 1005.81 1910.65 -97.3907 634.831 -131.154 887.56 -173.525 6.32841 -329.042 -285.266 -246.404 -318.944 -413.66 129.485 -348.613 -60.0963 -468.468 12.6541 56.2989 114.243 -200.407 -56.4288 272.464 350.867 225.549 107.429 286.174 661.065 -477.289
internal_weight=0 116 83 1198 60 1177 47 1130 524 606 570 544 456 364 88 338 496 75 421 396 360 228 150 223 191 167 140 101 44 78
internal_count=1314 116 83 1198 60 1177 47 1130 524 606 570 544 456 364 88 338 496 75 421 396 360 228 150 223 191 167 140 101 44 78
is_linear=0
shrinkage=0.1


Tree=30
num_leaves=31
num_cat=0
split_feature=2 1 0 3 1 13 0 6 12 13 0 0 3 9 7 0 11 3 3 11 0 7 5 7 3 0 6 12 5 0
split_gain=1.14691e+10 5.79438e+09 2.6538e+09 4.75558e+09 9.05071e+09 3.93972e+09 3.64554e+09 3.11634e+09 1.96131e+09 1.87208e+09 2.05933e+09 1.74742e+09 2.55662e+09 1.64872e+09 1.64407e+09 2.34463e+09 1.438e+09 1.4028e+09 1.29072e+09 1.02734e+09 9.35178e+08 9.01241e+08 8.60293e+08 8.57294e+08 8.78297e+08 8.33222e+08 1.10413e+09 9.86257e+08 7.37549e+08 6.95888e+08
threshold=2.5000000000000004 1.0000000180025095e-35 1483.0000000000002 876.00000000000011 1.5000000000000002 -1.0000000180025095e-35 1767.0000000000002 1707.5000000000002 -98.499999999999986 -5.4999999999999991 1337.5000000000002 1303.0000000000002 670.50000000000011 5.5000000000000009 8389.0000000000018 1237.0000000000002 935.50000000000011 523.50000000000011 631.00000000000011 797.00000000000011 662.00000000000011 14183.000000000002 -37.499999999999993 11424.000000000002 399.00000000000006 1130.5000000000002 1077.5000000000002 -70.499999999999986 -12.499999999999998 969.50000000000011
decision_type=2 2 2 2 2 2 2 2 2 2 2 2 2 2 2 2 2 2 2 2 2 2 8 2 2 2 2 2 10 2
left_child=1 8 9 4 5 6 7 28 -1 10 14 12 16 20 -3 21 19 -12 22 -11 -10 23 -15 24 -16 26 27 -22 -4 -24
right_child=-2 2 3 -5 -6 -7 -8 -9 13 11 17 -13 -14 18 15 -17 -18 -19 -20 -21 25 -23 29 -25 -26 -27 -28 -29 -30 -31
leaf_value=-1153.5389892578125 1932.8094802856447 -307.09007993959915 -409.21065615140475 -999.80353271484387 2019.6458496093751 1405.266047973633 -850.33156379250931 1340.0050445556642 -950.83470905010518 -335.81273681640624 5.9674307686941965 1023.714312055034 1122.0320663452148 235.987896863152 -440.19368281508946 1071.9158311110277 -850.91636439732144 -1027.862037222726 557.08322944641111 677.76593902587899 -930.3347884041923 -577.56826049804693 -40.834752176024701 527.86596096317942 171.8377079151295 -651.9108992319259 64.323511954198906 -281.70199204550852 298.31931080537686 -451.07211501292699
leaf_weight=24 30 102 26 20 37 25 34 24 26 20 21 31 20 51 33 26 21 35 32 20 28 20 88 41 81 63 79 144 34 78
leaf_count=24 30 102 26 20 37 25 34 24 26 20 21 31 20 51 33 26 21 35 32 20 28 20 88 41 81 63 79 144 34 78
internal_value=0 -45.1591 157.885 463.074 625.615 264.922 23.324 376.946 -267.414 28.2929 -83.063 385.229 140.87 -231.307 19.9017 185.838 -180.823 -640.176 -35.8034 170.977 -374.485 54.192 -123.234 135.709 -5.32927 -326.762 -245.151 -387.293 -8.27701 -233.597
internal_weight=0 1284 671 200 180 143 118 84 613 471 359 112 81 589 303 201 61 56 249 40 340 175 217 155 114 314 251 172 60 166
internal_count=1314 1284 671 200 180 143 118 84 613 471 359 112 81 589 303 201 61 56 249 40 340 175 217 155 114 314 251 172 60 166
is_linear=0
shrinkage=0.1


Tree=31
num_leaves=31
num_cat=0
split_feature=3 3 0 7 5 3 3 13 1 12 11 12 8 6 11 6 5 11 8 7 7 8 3 6 9 0 9 8 3 1
split_gain=9.52757e+09 1.89513e+10 1.35083e+10 5.65504e+09 3.62245e+09 3.25603e+09 2.36323e+09 2.23483e+09 2.73479e+09 1.5652e+09 1.34548e+09 1.33715e+09 1.18294e+09 1.9494e+09 1.01386e+09 9.68358e+08 1.01771e+09 1.09327e+09 8.81696e+08 1.05434e+09 8.83879e+08 1.00131e+09 1.01692e+09 9.00067e+08 1.18722e+09 1.82677e+09 8.46792e+08 6.85512e+08 8.36943e+08 7.81474e+08
threshold=785.00000000000011 835.00000000000011 1767.0000000000002 25190.500000000004 -1.0000000180025095e-35 590.00000000000011 901.00000000000011 -15.499999999999998 1.5000000000000002 -88.499999999999986 580.50000000000011 -2.4999999999999996 20.500000000000004 1552.5000000000002 773.50000000000011 903.00000000000011 -88.499999999999986 601.00000000000011 6.5000000000000009 7486.0000000000009 16597.500000000004 10.500000000000002 333.00000000000006 1093.5000000000002 6.5000000000000009 1180.5000000000002 5.5000000000000009 16.500000000000004 538.50000000000011 1.0000000180025095e-35
decision_type=2 2 2 2 10 2 2 2 2 2 2 2 2 2 2 2 10 2 2 2 2 2 2 2 2 2 2 2 2 2
left_child=3 -2 6 4 7 -6 -3 9 11 14 -11 15 13 -13 -1 -9 -17 -18 19 -12 21 22 -20 -23 27 -26 -21 28 -25 -29
right_child=1 2 -4 -5 5 -7 -8 8 -10 10 18 12 -14 -15 -16 16 17 -19 20 26 -22 23 -24 24 25 -27 -28 29 -30 -31
leaf_value=-1368.9496765136719 2850.3411477706013 313.41813323974611 -2217.5176757812501 1542.7625491187687 1634.6623055371372 -33.397421020507814 1603.7676440152254 -470.91936607876346 964.16473955426909 -706.04364361233183 -270.79747603567029 -183.69832414899554 104.56560715895432 -1458.2569771902902 -443.45852597993002 -595.62935791015627 -443.84148521134352 159.9166873653609 -242.77411075798241 1.0330816095525568 -871.96246112641848 -373.16456502741039 -1068.3711586914062 87.500724776585912 233.24752575102309 -1010.3251461452909 868.83268100904388 -678.50150291806176 717.70751404232453 93.126100164140979
leaf_weight=20 34 40 20 21 22 25 22 37 28 54 38 28 26 21 29 22 33 329 37 22 21 110 25 96 21 27 23 21 27 35
leaf_count=20 34 40 20 21 22 25 22 37 28 54 38 28 26 21 29 22 33 329 37 22 21 110 25 96 21 27 23 21 27 35
internal_value=0 865.352 42.308 -83.7904 -112.811 747.396 771.284 -148.59 2.64566 -279.361 -231.694 -51.6336 -440.643 -729.938 -821.21 17.6674 64.7447 104.878 -180.77 117.055 -239.626 -206.345 -575.676 -138.397 -24.6323 -466.262 444.575 93.7936 225.839 -196.234
internal_weight=0 116 82 1198 1177 47 62 1130 524 606 557 496 75 49 49 421 384 362 503 83 420 399 62 337 227 48 45 179 123 56
internal_count=1314 116 82 1198 1177 47 62 1130 524 606 557 496 75 49 49 421 384 362 503 83 420 399 62 337 227 48 45 179 123 56
is_linear=0
shrinkage=0.1


Tree=32
num_leaves=31
num_cat=0
split_feature=11 8 6 7 7 13 8 3 6 12 7 7 7 3 6 8 0 7 13 7 6 11 8 10 3 5 8 5 7 11
split_gain=9.16448e+09 3.85784e+10 3.7563e+10 3.56473e+09 3.6607e+09 2.75541e+09 2.00139e+09 1.45538e+09 1.3448e+09 1.22982e+09 1.1971e+09 9.60198e+08 1.16097e+09 9.42524e+08 8.02649e+08 1.75741e+09 2.10853e+09 1.32943e+09 8.09756e+08 1.63933e+09 8.15664e+08 7.90127e+08 7.36447e+08 7.03281e+08 7.39582e+08 1.85679e+09 8.66749e+08 1.28189e+09 1.25105e+09 7.38231e+08
threshold=1690.0000000000002 13.500000000000002 2091.5000000000005 18845.000000000004 16597.500000000004 -13.499999999999998 10.500000000000002 172.00000000000003 1793.5000000000002 -93.499999999999986 5308.0000000000009 12525.000000000002 13516.000000000002 707.00000000000011 1600.5000000000002 6.5000000000000009 1276.5000000000002 12801.500000000002 -7.4999999999999991 10819.500000000002 1931.0000000000002 764.50000000000011 20.500000000000004 5.5000000000000009 527.50000000000011 -37.499999999999993 6.5000000000000009 -51.499999999999993 7486.0000000000009 1144.5000000000002
decision_type=2 2 2 2 2 2 2 2 2 2 2 2 2 2 2 2 2 2 2 2 2 2 2 2 2 10 2 10 2 2
left_child=3 -2 8 4 5 7 -5 21 -3 -7 -11 13 -13 23 22 16 -16 18 -17 20 -20 -1 -12 29 26 -26 28 -28 -25 -9
right_child=1 2 -4 6 -6 9 -8 11 -10 10 14 12 -14 -15 15 17 -18 -19 19 -21 -22 -23 -24 24 25 -27 27 -29 -30 -31
leaf_value=-1134.3692692871095 -2183.3232461111888 1310.0985113234747 5868.1312377929689 1425.2132181803386 -1329.5998863220216 -666.52181454613094 70.735667800903329 -341.31044656323718 243.11488353587961 -252.33008676830093 -24.590417861938477 780.0923561789773 -152.20530615413892 417.59436617764561 355.17543473354607 585.62275513182294 1577.6394112723215 -553.11423772176101 31.630029296875001 -496.75555301789319 923.95489929199221 -367.2264939406823 473.01158809116907 -201.41826669602167 327.48669516823509 -768.44829976008486 -545.58149721699374 -0.57706545977525303 903.69036071777339 -990.23538665771491
leaf_weight=25 28 21 20 24 24 21 20 142 27 76 198 22 34 22 43 47 21 24 21 31 20 29 35 21 22 52 62 142 20 20
leaf_count=25 28 21 20 24 24 21 20 142 27 76 198 22 34 22 43 47 21 24 21 31 20 29 35 21 22 52 62 142 20 20
internal_value=0 940.685 2227.04 -74.1426 -107.262 -81.7523 809.542 -226.63 709.92 83.6292 114.159 -178.739 214.054 -222.47 177.461 320.756 756.296 125.828 262.758 51.9987 466.91 -722.385 50.1567 -251.745 -165.575 -442.63 -81.8938 -166.216 337.659 -421.425
internal_weight=0 96 68 1218 1174 1150 44 613 48 537 516 559 56 503 440 207 64 143 119 72 41 54 233 481 319 74 245 204 41 162
internal_count=1314 96 68 1218 1174 1150 44 613 48 537 516 559 56 503 440 207 64 143 119 72 41 54 233 481 319 74 245 204 41 162
is_linear=0
shrinkage=0.1


Tree=33
num_leaves=31
num_cat=0
split_feature=2 1 6 7 13 6 7 3 12 7 11 3 3 6 11 9 3 5 3 3 7 10 5 0 11 7 7 5 11 4
split_gain=7.77326e+09 3.35911e+09 3.01575e+09 6.33239e+09 4.99391e+09 5.19957e+09 4.26088e+09 1.61169e+09 1.3234e+09 1.10393e+09 1.58258e+09 1.28954e+09 1.87507e+09 1.29383e+09 1.01567e+09 1.00686e+09 8.84525e+08 7.91102e+08 7.49427e+08 6.77396e+08 1.2618e+09 6.52706e+08 6.35195e+08 7.6615e+08 7.66782e+08 1.2952e+09 7.70605e+08 5.80424e+08 1.13604e+09 9.22875e+08
threshold=2.5000000000000004 1.0000000180025095e-35 2520.5000000000005 22175.000000000004 -1.0000000180025095e-35 1912.5000000000002 9245.5000000000018 857.50000000000011 -98.499999999999986 16597.500000000004 1420.5000000000002 629.00000000000011 675.50000000000011 2091.5000000000005 1363.0000000000002 5.5000000000000009 631.00000000000011 -5.4999999999999991 529.50000000000011 689.50000000000011 12671.000000000002 5.5000000000000009 -38.499999999999993 662.00000000000011 957.00000000000011 10231.500000000002 8895.5000000000018 -66.499999999999986 861.50000000000011 1.5000000000000002
decision_type=2 2 2 2 2 2 2 2 2 2 2 2 2 2 2 2 2 8 2 2 2 2 10 2 2 2 2 8 2 2
left_child=1 8 3 4 7 6 -6 9 -1 10 11 13 -13 14 18 22 17 21 27 20 -12 -17 23 -10 25 -25 -26 28 -3 -29
right_child=-2 2 -4 -5 5 -7 -8 -9 15 -11 19 12 -14 -15 -16 16 -18 -19 -20 -21 -22 -23 -24 24 26 -27 -28 29 -30 -31
leaf_value=-934.29381777445474 1591.204282836914 699.62064257812506 -772.95439639621316 1919.0307824707031 1351.46048828125 2294.1243605041504 -712.73031127929698 785.91799774169931 -972.0020205688478 -599.52193957913312 270.66544565836591 -1264.6886742001489 42.268160480001704 735.06695834073162 -747.59630020141606 -261.47974754174555 466.84497718811036 -364.5059176510328 351.18837726910914 -16.810806905812232 1225.2849658203127 190.15135581841071 -84.14951939174108 -330.31025631022908 -231.49951364617601 457.30744887131914 -843.08479760064029 -444.57033615112306 -311.53514274597171 -7.1006801469864387
leaf_weight=24 30 25 36 20 20 20 20 26 20 31 45 21 23 22 20 48 32 73 48 29 20 96 105 106 38 26 45 70 20 155
leaf_count=24 30 25 36 20 20 20 20 26 20 31 45 21 23 22 20 48 32 73 48 29 20 96 105 106 38 26 45 70 20 155
internal_value=0 -37.1777 117.418 167.896 110.949 977.618 319.365 17.2548 -206.401 -20.5245 15.5175 -70.4713 -581.507 -8.01146 -56.3775 -176.742 -23.9614 -96.3384 -12.9046 385.086 564.395 39.6077 -288.631 -379.995 -324.924 -175.173 -563.082 -77.6323 250.218 -143.202
internal_weight=0 1284 671 635 615 60 40 555 613 529 498 404 44 360 338 589 249 217 318 94 65 144 340 235 215 132 83 270 45 225
internal_count=1314 1284 671 635 615 60 40 555 613 529 498 404 44 360 338 589 249 217 318 94 65 144 340 235 215 132 83 270 45 225
is_linear=0
shrinkage=0.1


Tree=34
num_leaves=31
num_cat=0
split_feature=6 7 0 6 12 6 5 3 6 8 8 0 12 11 11 7 13 12 11 11 8 6 0 6 3 7 7 3 5 7
split_gain=7.0874e+09 5.65655e+09 3.75864e+09 3.18446e+09 3.04565e+09 2.54984e+09 1.69942e+09 4.1156e+09 1.712e+09 1.559e+09 3.36687e+09 2.17492e+09 1.5512e+09 9.56801e+08 7.74418e+08 7.35757e+08 7.98215e+08 1.04138e+09 9.63147e+08 7.77928e+08 6.33917e+08 5.86389e+08 5.85778e+08 5.63855e+08 5.23973e+08 1.47405e+09 5.48239e+08 5.16061e+08 1.39947e+09 1.54744e+09
threshold=2650.0000000000005 26160.000000000004 2071.0000000000005 2470.5000000000005 -1.0000000180025095e-35 1649.0000000000002 -1.0000000180025095e-35 837.50000000000011 1791.0000000000002 6.5000000000000009 5.5000000000000009 1767.0000000000002 -76.499999999999986 1655.0000000000002 904.00000000000011 5000.5000000000009 -4.4999999999999991 -1.4999999999999998 845.50000000000011 968.50000000000011 8.5000000000000018 1303.0000000000002 937.00000000000011 1321.0000000000002 532.50000000000011 9528.0000000000018 9091.0000000000018 485.00000000000006 -31.499999999999996 10438.500000000002
decision_type=2 2 2 2 2 2 8 2 2 2 2 2 2 2 2 2 2 2 2 2 2 2 2 2 2 2 2 2 10 2
left_child=1 2 3 4 6 -6 7 9 -9 10 24 12 14 15 23 19 27 18 -18 -14 -8 -20 -22 -11 26 -26 -1 -17 29 -29
right_child=-2 -3 -4 -5 5 -7 20 8 -10 11 -12 -13 13 -15 -16 16 17 -19 21 -21 22 -23 -24 -25 25 -27 -28 28 -30 -31
leaf_value=-31.979164011023016 1364.3958507640943 1628.9939965820313 1260.5418481735958 -1205.7683642578127 37.565655008951829 1546.419749232701 -196.80324977329801 310.12748295710639 1524.0860845656623 -697.98766772460942 996.33627191492042 -1201.4478247070313 -186.58679824829102 555.88006120161583 -946.45308863321941 -53.512300997874775 -154.21529795328777 -439.89166814630681 175.15193717262963 -938.20083654494522 -389.98253417809809 841.66103441642997 -1068.9734472204138 -86.493931499280436 -314.65837262834822 564.04717714218873 -489.9885558051032 -186.79712009006076 -26.769536597706448 -1066.4115039401584
leaf_weight=89 37 20 21 25 24 21 35 26 21 25 37 20 40 22 30 305 27 22 22 21 24 33 27 38 35 42 37 45 107 36
leaf_count=89 37 20 21 25 24 21 35 26 21 25 37 20 40 22 30 305 27 22 22 21 24 33 27 38 35 42 37 45 107 36
internal_value=0 -39.5322 -66.08 -88.6197 -65.5571 741.698 -96.7119 -62.6445 852.535 -104.284 119.024 -171.867 -145.229 -92.841 -528.28 -114.531 -80.7296 171.026 334.931 -445.339 -524.535 575.057 -749.448 -329.15 -40.8807 164.636 -166.474 -133.838 -264.154 -577.737
internal_weight=0 1277 1257 1236 1211 45 1166 1080 47 1033 240 793 773 680 93 658 597 104 82 61 86 55 51 63 203 77 126 493 188 81
internal_count=1314 1277 1257 1236 1211 45 1166 1080 47 1033 240 793 773 680 93 658 597 104 82 61 86 55 51 63 203 77 126 493 188 81
is_linear=0
shrinkage=0.1


Tree=35
num_leaves=31
num_cat=0
split_feature=1 8 0 6 6 12 6 3 9 5 7 8 5 7 0 7 12 11 11 0 1 11 11 13 8 5 13 12 8 8
split_gain=6.19256e+09 1.48042e+10 5.60701e+09 9.20941e+09 5.4834e+09 2.43577e+09 2.07388e+09 1.45785e+09 2.39849e+09 2.0976e+09 2.30091e+09 1.32157e+09 1.32996e+09 1.29928e+09 1.12641e+09 9.1488e+08 8.83422e+08 8.87662e+08 8.53866e+08 9.84294e+08 1.34814e+09 6.87932e+08 9.26839e+08 7.0021e+08 8.53727e+08 6.69758e+08 8.51884e+08 8.34027e+08 6.24199e+08 6.13276e+08
threshold=1.5000000000000002 14.500000000000002 2032.0000000000002 2600.0000000000005 1984.5000000000002 -48.499999999999993 1489.5000000000002 870.50000000000011 8.5000000000000018 -1.0000000180025095e-35 8895.5000000000018 6.5000000000000009 -56.499999999999993 7213.0000000000009 1389.5000000000002 8984.0000000000018 -61.499999999999993 893.50000000000011 1392.5000000000002 1727.0000000000002 1.0000000180025095e-35 1131.0000000000002 1085.5000000000002 -9.4999999999999982 13.500000000000002 -53.499999999999993 -16.499999999999996 -84.499999999999986 11.500000000000002 15.500000000000002
decision_type=2 2 2 2 2 2 2 2 2 10 2 2 8 2 2 2 2 2 2 2 2 2 2 2 2 10 2 2 2 2
left_child=2 4 3 5 6 11 -2 8 9 15 -11 12 13 -1 16 -7 17 25 21 20 -20 22 -17 24 -23 26 27 -13 -18 -22
right_child=1 -3 -4 -5 -6 7 -8 -9 -10 10 -12 14 -14 -15 -16 18 28 -19 19 -21 29 23 -24 -25 -26 -27 -28 -29 -30 -31
leaf_value=-134.81100081443788 -295.7429449535552 2380.998932562934 -1646.4664041605863 1790.4298538773151 -1464.4873256138394 -149.35496133855872 1009.1295210476579 684.64158134460456 -1009.9673472528872 1486.2604222106934 71.111642795138891 -1194.4435798976733 -382.26887584013099 967.25278851052997 -1021.7342412109376 9.1532413121273652 -528.19926863045532 -885.9888500213624 -161.81875348772323 -259.44836309523811 1106.3592036655971 386.67688889936971 645.75157966613779 -776.0564287281037 -459.7354759803186 49.578494501113894 -104.33108942368452 -367.76337209848259 1.8444585217927632 424.93612597656249
leaf_weight=20 21 36 22 27 21 296 29 32 23 20 27 23 34 23 25 190 29 40 21 21 28 22 26 20 26 32 34 26 95 25
leaf_count=20 21 36 22 27 21 296 29 32 23 20 27 23 34 23 25 190 29 40 21 21 28 22 26 20 26 32 34 26 95 25
internal_value=0 729.12 -64.6362 -35.2689 -108.452 -77.837 461.083 23.7215 -4.66704 27.3578 673.303 -284.952 85.1098 454.665 -378.685 -17.6191 -321.064 -480.222 85.2669 344.788 516.26 -1.54473 85.7808 -278.932 -71.7965 -339.085 -488.931 -755.797 -122.117 784.933
internal_weight=0 107 1207 1185 71 1158 50 777 745 722 47 381 77 43 304 675 279 155 379 95 74 284 216 68 48 115 83 49 124 53
internal_count=1314 107 1207 1185 71 1158 50 777 745 722 47 381 77 43 304 675 279 155 379 95 74 284 216 68 48 115 83 49 124 53
is_linear=0
shrinkage=0.1


Tree=36
num_leaves=31
num_cat=0
split_feature=11 8 6 7 7 8 13 6 0 12 7 7 6 13 13 7 3 13 13 7 6 7 0 0 3 0 0 8 13 3
split_gain=5.84453e+09 3.01669e+10 2.80408e+10 1.9121e+09 3.03704e+09 1.51134e+09 1.44991e+09 1.03816e+09 9.50549e+08 7.28778e+08 6.82113e+08 9.49884e+08 2.65754e+09 3.64383e+09 1.27733e+09 1.44112e+09 1.57064e+09 1.47059e+09 2.42994e+09 1.20585e+09 8.81278e+08 6.72539e+08 9.41399e+08 9.28958e+08 9.21919e+08 8.12873e+08 1.44839e+09 8.77977e+08 6.01996e+08 5.37086e+08
